
\data\
ngram 1=813
ngram 2=1879

\1-grams:
-3.177074	$10	-0.0657606
-3.177074	$100	-0.0657606
-3.177074	$3	-0.0657606
-3.177074	$30	-0.0657606
-3.177074	$4	-0.0657606
-3.177074	$50	-0.0657606
-1.77931	''	-0.4112856
-2.924988	(	-0.0657606
-2.924988	)	-0.127184
-1.439931	,	-0.2301852
-2.764286	--	-0.0657606
-1.446343	.	-1.791844
-2.924988	1	-0.0657606
-3.177074	1,119	-0.06576059
-3.177074	13	-0.0657606
-3.177074	13th	-0.0657606
-3.177074	18	-0.0657606
-3.177074	1913	-0.0657606
-3.177074	1923	-0.0657606
-3.177074	1937	-0.0657606
-3.177074	1958	-0.0657606
-3.177074	1961	-0.0657606
-3.177074	1962	-0.06576059
-2.924988	2	-0.0657606
-3.177074	29-5	-0.0657606
-3.177074	402	-0.0657606
-3.177074	637	-0.06576059
-3.177074	71	-0.0657606
-3.177074	74	-0.0657606
-3.177074	8	-0.0657606
-3.177074	87-31	-0.0657606
-3.056977	:	-0.06576058
-2.263913	</s>
-99	<s>	-0.2955017
-1.94691	``	-0.1088519
-1.702996	a	-0.1018506
-3.177074	abandoned	-0.0657606
-3.177074	about	-0.06576059
-3.177074	accepted	-0.0657606
-3.177074	according	-0.0657606
-3.177074	achieve	-0.06576059
-2.924988	act	-0.06576061
-3.056977	action	-0.0657606
-3.177074	actions	-0.0657606
-3.177074	adamant	-0.06576059
-2.924988	added	-0.319575
-3.056977	additional	-0.06576061
-3.056977	adjournment	-0.06576061
-3.177074	adjustments	-0.0657606
-3.056977	administration	-0.0657606
-3.177074	administrators	-0.0657606
-2.764286	after	-0.1109947
-3.177074	afternoon	-0.0657606
-3.177074	against	-0.06576059
-3.056977	age	-0.1614939
-3.177074	agreed	-0.06576059
-3.177074	agriculture	-0.0657606
-3.177074	aid	-0.0657606
-3.056977	airport	-0.0657606
-3.177074	aj	-0.0657606
-3.177074	ala.	-0.0657606
-3.177074	all	-0.06576059
-3.177074	allen	-0.1614938
-3.177074	allotted	-0.0657606
-3.177074	allow	-0.0657606
-3.177074	allowances	-0.0657606
-3.177074	allowed	-0.0657606
-3.177074	alpharetta	-0.06576059
-2.924988	also	-0.0657606
-3.177074	alternative	-0.06576059
-3.177074	ambiguous	-0.0657606
-3.177074	amendment	-0.0657606
-3.177074	amicable	-0.0657606
-3.177074	among	-0.0657606
-2.647252	an	-0.09538727
-1.726974	and	-0.08488709
-3.177074	announced	-0.0657606
-2.924988	anonymous	-0.06576061
-3.177074	any	-0.0657606
-3.056977	apparently	-0.0657606
-3.177074	appointed	-0.0657606
-3.177074	appointment	-0.0657606
-3.177074	appraisers	-0.0657606
-3.177074	approval	-0.0657606
-3.177074	approve	-0.0657606
-3.056977	approved	-0.0657606
-2.924988	are	-0.0657606
-3.177074	areas	-0.0657606
-3.177074	armed	-0.0657606
-2.223421	as	-0.1125486
-3.177074	aside	-0.06576059
-3.056977	ask	-0.06576059
-3.056977	asked	-0.0657606
-3.177074	asking	-0.06576059
-3.177074	assistance	-0.0657606
-3.177074	assistant	-0.0657606
-3.177074	association	-0.0657606
-2.414593	at	-0.350475
-3.056977	atlanta	-0.0657606
-3.056977	atlanta's	-0.0657606
-3.177074	attended	-0.0657606
-3.056977	attorney	-0.0657606
-3.177074	attorneys	-0.0657606
-3.177074	audience	-0.0657606
-3.177074	aug.	-0.0657606
-3.177074	austin	-0.0657606
-3.177074	authorities	-0.0657606
-3.177074	authority	-0.0657606
-3.177074	automobile	-0.06576059
-3.177074	available	-0.0657606
-3.177074	awarding	-0.0657606
-3.056977	b.	-0.06576061
-3.056977	back	-0.0657606
-3.177074	ballot	-0.0657606
-3.177074	bankers	-0.0657606
-3.177074	bar	-0.06576059
-2.924988	barber	-0.0657606
-3.177074	battle	-0.0657606
-2.186385	be	-0.08244189
-3.177074	became	-0.0657606
-3.177074	become	-0.0657606
-2.924988	been	-0.06576059
-3.056977	before	-0.0657606
-3.177074	begin	-0.0657606
-2.647252	being	-0.1015631
-3.177074	believes	-0.0657606
-3.177074	bellwood	-0.0657606
-3.177074	berry	-0.0657606
-3.177074	best	-0.0657606
-3.177074	birth	-0.0657606
-3.177074	bit	-0.1614939
-3.056977	blue	-0.1614938
-3.056977	board	-0.06576059
-3.177074	body's	-0.0657606
-3.056977	bond	-0.127184
-2.647252	bonds	-0.09538729
-2.924988	both	-0.0657606
-3.177074	bowden	-0.06576061
-3.177074	brief	-0.06576059
-3.177074	brought	-0.06576059
-3.177074	burden	-0.0657606
-3.056977	bush	-0.127184
-3.056977	but	-0.06576061
-2.358355	by	-0.0657606
-3.177074	byrd	-0.0657606
-3.177074	byrd's	-0.0657606
-3.056977	caldwell	-0.0657606
-3.177074	caldwell's	-0.06576059
-3.177074	callan	-0.0657606
-2.924988	calls	-0.0657606
-3.177074	calmest	-0.0657606
-2.647252	campaign	-0.06576061
-3.177074	can	-0.06576059
-3.177074	candidate	-0.1109947
-3.056977	candidates	-0.0657606
-3.177074	career	-0.06576059
-3.177074	carey	-0.0657606
-3.177074	carry	-0.0657606
-3.177074	cent	-0.0657606
-3.177074	certain	-0.06576059
-2.924988	chairman	-0.0657606
-3.177074	chambers	-0.0657606
-3.056977	charge	-0.06576059
-3.056977	charged	-0.0657606
-3.177074	cheshire	-0.0657606
-3.177074	child	-0.0657606
-3.177074	church	-0.0657606
-3.056977	citizens	-0.0657606
-2.555155	city	-0.0657606
-3.177074	clerical	-0.0657606
-3.056977	colquitt	-0.0657606
-3.177074	combined	-0.0657606
-3.056977	commented	-0.1614939
-3.177074	commerce	-0.0657606
-3.177074	commissioner's	-0.0657606
-2.924988	committee	-0.1109947
-3.177074	compensation	-0.0657606
-3.177074	concessionaires	-0.0657606
-3.177074	conducted	-0.0657606
-3.177074	congress	-0.06576059
-3.177074	congressional	-0.06576059
-3.177074	congressmen	-0.06576059
-3.177074	considering	-0.06576059
-3.177074	consistently	-0.06576059
-3.177074	constitution	-0.0657606
-3.177074	constitutional	-0.06576059
-3.056977	construction	-0.06576061
-3.177074	consulted	-0.06576059
-3.177074	continue	-0.0657606
-3.177074	contracts	-0.06576059
-3.056977	controversy	-0.1614939
-3.056977	coolest	-0.0657606
-3.177074	coordinator	-0.0657606
-3.177074	cost	-0.0657606
-3.177074	costs	-0.0657606
-3.177074	council	-0.0657606
-3.056977	counties	-0.06576061
-2.414593	county	-0.07736988
-3.177074	couple	-0.0657606
-3.177074	courses	-0.0657606
-2.924988	court	-0.0657606
-3.177074	court's	-0.0657606
-3.177074	courts	-0.0657606
-3.177074	criticisms	-0.0657606
-3.177074	crowd	-0.06576061
-3.177074	cruelty	-0.0657606
-3.177074	d.	-0.0657606
-3.177074	daniel's	-0.0657606
-3.177074	date	-0.0657606
-3.177074	daughter	-0.0657606
-2.924988	davis	-0.0657606
-3.177074	day	-0.0657606
-3.177074	days	-0.0657606
-3.177074	death	-0.06576059
-3.177074	defeated	-0.0657606
-3.177074	delegation	-0.0657606
-3.177074	democratic	-0.0657606
-2.555155	department	-0.1057297
-3.177074	department's	-0.06576059
-3.056977	departments	-0.06576059
-3.056977	deputies	-0.06576059
-3.177074	deserves	-0.06576059
-3.056977	despite	-0.1614939
-3.177074	details	-0.0657606
-3.177074	determine	-0.06576059
-3.056977	did	-0.06576061
-3.056977	didn't	-0.0657606
-3.177074	directed	-0.0657606
-3.177074	director	-0.0657606
-3.177074	disable	-0.0657606
-3.177074	disproportionate	-0.06576059
-3.177074	dispute	-0.0657606
-3.177074	dissents	-0.0657606
-3.177074	distribute	-0.0657606
-3.177074	distribution	-0.0657606
-3.177074	divorce	-0.0657606
-3.177074	do	-0.0657606
-3.177074	doctor	-0.0657606
-3.177074	does	-0.0657606
-3.177074	done	-0.0657606
-3.177074	dorsey	-0.0657606
-3.177074	drop	-0.0657606
-3.177074	during	-0.06576059
-3.177074	durwood	-0.06576059
-3.177074	duty	-0.0657606
-3.177074	e.	-0.0657606
-3.177074	each	-0.0657606
-3.177074	earlier	-0.0657606
-2.924988	education	-0.127184
-3.177074	effect	-0.06576059
-3.177074	effected	-0.0657606
-3.177074	effective	-0.06576059
-3.177074	efficiency	-0.0657606
-3.177074	elaborate	-0.0657606
-2.924988	elected	-0.0657606
-2.358355	election	-0.1517465
-3.177074	eliminate	-0.0657606
-3.177074	emphasizing	-0.0657606
-3.177074	employed	-0.0657606
-3.177074	employes	-0.0657606
-3.056977	enabling	-0.06576061
-3.177074	encouragement	-0.0657606
-3.177074	end	-0.0657606
-3.177074	endorse	-0.06576059
-3.177074	enter	-0.1614938
-3.177074	entering	-0.0657606
-3.177074	enthusiasm	-0.06576061
-3.177074	enthusiastic	-0.06576059
-3.177074	equitable	-0.0657606
-3.177074	establishment	-0.0657606
-3.177074	event	-0.06576059
-3.177074	ever	-0.1614938
-3.177074	every	-0.0657606
-3.177074	everything	-0.06576059
-3.177074	evidence	-0.0657606
-3.056977	exception	-0.1614939
-3.056977	executive	-0.1614938
-3.056977	expected	-0.24094
-3.177074	expended	-0.0657606
-3.177074	expense	-0.06576059
-3.177074	experienced	-0.06576059
-3.177074	expires	-0.0657606
-3.177074	extern	-0.06576059
-3.177074	face	-0.0657606
-3.177074	fact	-0.0657606
-3.177074	failure	-0.0657606
-3.177074	fair	-0.0657606
-3.177074	farms	-0.0657606
-3.177074	feared	-0.0657606
-3.177074	featured	-0.06576059
-2.764286	federal	-0.1109947
-3.177074	feel	-0.0657606
-3.177074	fees	-0.0657606
-3.056977	felix	-0.0657606
-3.177074	filed	-0.0657606
-3.177074	find	-0.0657606
-3.177074	fire	-0.0657606
-2.764286	first	-0.0657606
-3.177074	fit	-0.0657606
-3.177074	five	-0.0657606
-3.056977	follow	-0.06576061
-1.94691	for	-0.1097461
-3.177074	force	-0.0657606
-3.177074	formally	-0.06576059
-3.177074	former	-0.0657606
-3.177074	foster	-0.06576059
-3.177074	found	-0.06576059
-3.056977	four	-0.0657606
-2.764286	friday	-0.0657606
-3.177074	friendly	-0.0657606
-2.764286	from	-0.0657606
-3.177074	fully	-0.06576059
-2.358355	fulton	-0.263429
-3.177074	fund	-0.06576059
-2.555155	funds	-0.08778899
-3.177074	further	-0.06576059
-3.056977	future	-0.0657606
-3.177074	gainesville	-0.0657606
-3.177074	garland	-0.06576059
-3.056977	general	-0.0657606
-3.177074	generally	-0.06576059
-3.177074	george	-0.06576059
-2.924988	georgia	-0.0657606
-3.177074	georgia's	-0.0657606
-3.177074	getting	-0.06576059
-3.177074	give	-0.0657606
-3.177074	given	-0.0657606
-3.177074	go	-0.0657606
-3.177074	goes	-0.0657606
-3.177074	good	-0.0657606
-3.177074	gop	-0.0657606
-3.056977	got	-0.0657606
-2.764286	gov.	-0.0657606
-3.177074	governments	-0.0657606
-3.177074	governor	-0.06576061
-3.177074	governor's	-0.0657606
-3.177074	grady	-0.06576059
-2.924988	grand	-0.24094
-3.177074	granted	-0.0657606
-3.177074	greater	-0.06576059
-3.056977	griffin	-0.1614938
-3.177074	guardians	-0.0657606
-3.177074	gubernatorial	-0.0657606
-3.177074	gun	-0.0657606
-2.924988	had	-0.127184
-3.177074	handful	-0.0657606
-3.177074	handling	-0.0657606
-3.177074	hard-fought	-0.0657606
-3.177074	harry	-0.0657606
-2.647252	hartsfield	-0.0657606
-2.358355	has	-0.2038313
-2.764286	have	-0.1405845
-2.647252	he	-0.09102913
-3.177074	head	-0.0657606
-3.177074	health	-0.0657606
-3.177074	heavily	-0.06576059
-3.056977	held	-0.0657606
-3.177074	henry	-0.06576059
-2.647252	highway	-0.2797587
-3.177074	highways	-0.0657606
-3.177074	him	-0.0657606
-3.056977	himself	-0.06576061
-2.263913	his	-0.06576061
-3.177074	hold	-0.0657606
-3.056977	home	-0.0657606
-3.177074	homes	-0.0657606
-3.177074	hopper	-0.0657606
-3.177074	hospital	-0.0657606
-3.177074	hot	-0.0657606
-3.056977	house	-0.06576061
-3.056977	however	-0.1271839
-3.177074	hurdle	-0.06576059
-3.056977	i	-0.127184
-3.056977	implementation	-0.1614939
-3.177074	improving	-0.0657606
-1.714819	in	-0.2814189
-3.177074	inadequate	-0.0657606
-3.177074	incorporated	-0.0657606
-2.924988	increase	-0.127184
-3.177074	increased	-0.0657606
-3.177074	influences	-0.0657606
-3.177074	insure	-0.06576059
-3.177074	intends	-0.0657606
-3.056977	interest	-0.0657606
-3.177074	interim	-0.0657606
-3.177074	interlude	-0.0657606
-3.177074	intern	-0.0657606
-2.924988	into	-0.06576061
-3.177074	inure	-0.0657606
-3.177074	investigate	-0.0657606
-3.177074	investigation	-0.0657606
-2.924988	irregularities	-0.0657606
-2.223421	is	-0.1330919
-3.177074	issuance	-0.0657606
-3.056977	issue	-0.1015631
-3.177074	issued	-0.06576059
-2.263913	it	-0.08423568
-3.177074	item	-0.0657606
-3.177074	items	-0.0657606
-2.647252	its	-0.06576061
-3.177074	itself	-0.0657606
-3.056977	ivan	-0.1614938
-3.177074	j.	-0.06576059
-3.177074	jackson	-0.0657606
-2.924988	jail	-0.0657606
-3.177074	james	-0.06576059
-3.056977	jan.	-0.1614938
-3.177074	john	-0.06576059
-3.056977	jr.	-0.1271839
-3.177074	judge	-0.06576059
-3.177074	juries	-0.0657606
-3.177074	jurors	-0.1614939
-2.764286	jury	-0.2688544
-3.177074	just	-0.0657606
-3.177074	keeping	-0.06576059
-3.177074	l.	-0.06576059
-3.177074	lacking	-0.0657606
-3.177074	largest	-0.06576059
-3.177074	last	-0.06576059
-2.924988	law	-0.06576061
-3.056977	laws	-0.0657606
-3.177074	leading	-0.0657606
-3.177074	learned	-0.06576059
-3.177074	ledford	-0.0657606
-3.177074	legislation	-0.0657606
-3.056977	legislator	-0.0657606
-2.924988	legislators	-0.0657606
-2.764286	legislature	-0.0657606
-3.177074	less	-0.06576059
-3.177074	let	-0.0657606
-3.056977	like	-0.06576061
-3.177074	likely	-0.0657606
-3.177074	liquor	-0.0657606
-2.924988	listed	-0.0657606
-3.177074	lived	-0.06576059
-3.177074	local	-0.0657606
-3.177074	long	-0.0657606
-3.177074	lt.	-0.0657606
-3.177074	m.	-0.06576059
-3.177074	mac	-0.0657606
-3.056977	made	-0.0657606
-3.177074	major	-0.06576059
-3.177074	make	-0.319575
-3.177074	making	-0.0657606
-3.177074	man	-0.0657606
-3.177074	management	-0.06576059
-3.056977	manner	-0.0657606
-3.056977	many	-0.06576059
-3.177074	march	-0.06576059
-3.177074	marked	-0.0657606
-3.177074	married	-0.06576059
-3.177074	marvin	-0.0657606
-3.177074	matters	-0.0657606
-3.177074	may	-0.06576059
-2.764286	mayor	-0.0657606
-3.177074	mayor's	-0.0657606
-3.177074	mayor-nominate	-0.0657606
-3.177074	meanwhile	-0.0657606
-3.177074	medical	-0.06576059
-3.056977	meeting	-0.0657606
-3.177074	members	-0.0657606
-3.177074	mental	-0.06576059
-3.177074	mention	-0.06576059
-3.177074	merger	-0.0657606
-3.177074	midnight	-0.06576059
-3.177074	might	-0.06576059
-3.056977	miller	-0.1614939
-2.647252	million	-0.1997958
-3.177074	modernizing	-0.0657606
-2.647252	monday	-0.0657606
-3.056977	money	-0.0657606
-2.924988	more	-0.127184
-3.177074	most	-0.06576059
-3.177074	mrs.	-0.06576059
-3.177074	multi-million-dollar	-0.0657606
-2.924988	must	-0.0657606
-3.177074	names	-0.0657606
-3.177074	near	-0.0657606
-3.177074	nevertheless	-0.0657606
-2.764286	new	-0.09538727
-3.177074	newly	-0.0657606
-3.177074	next	-0.0657606
-2.924988	night	-0.06576059
-2.764286	no	-0.0657606
-3.056977	none	-0.1614939
-2.647252	not	-0.0657606
-3.177074	notice	-0.0657606
-3.177074	november	-0.06576059
-3.056977	number	-0.319575
-3.177074	obtain	-0.06576059
-3.177074	occupation	-0.0657606
-1.531726	of	-0.1931209
-3.177074	off	-0.0657606
-3.056977	offer	-0.06576061
-3.177074	offered	-0.0657606
-3.056977	office	-0.06576061
-3.177074	offices	-0.0657606
-3.177074	official	-0.06576059
-3.177074	officials	-0.0657606
-3.177074	often	-0.06576059
-3.177074	old	-0.06576059
-2.414593	on	-0.1808366
-2.764286	one	-0.1109947
-3.177074	ones	-0.0657606
-3.177074	only	-0.0657606
-3.177074	opelika	-0.0657606
-3.177074	opened	-0.0657606
-3.056977	operated	-0.06576061
-3.177074	operating	-0.06576059
-3.177074	operation	-0.0657606
-3.177074	opposed	-0.0657606
-3.177074	opposes	-0.0657606
-2.764286	or	-0.06576059
-3.177074	order	-0.0657606
-3.177074	orderly	-0.0657606
-3.056977	ordinary	-0.0657606
-3.177074	ordinary's	-0.0657606
-3.056977	other	-0.06576061
-3.056977	our	-0.06576061
-2.924988	out	-0.06576061
-3.177074	outgoing	-0.0657606
-3.177074	outmoded	-0.0657606
-3.177074	outright	-0.0657606
-3.177074	over-all	-0.0657606
-3.177074	p.	-0.06576059
-3.177074	paid	-0.06576059
-3.056977	party	-0.0657606
-3.177074	pass	-0.0657606
-3.056977	passed	-0.06576061
-3.177074	past	-0.0657606
-3.056977	pay	-0.1614938
-3.177074	pearl	-0.0657606
-2.764286	pelham	-0.1015631
-3.177074	pension	-0.0657606
-3.056977	per	-0.06576061
-3.177074	periodic	-0.06576059
-3.056977	permit	-0.0657606
-3.056977	personnel	-0.0657606
-3.056977	petition	-0.0657606
-3.056977	petitions	-0.0657606
-3.177074	phone	-0.0657606
-3.177074	picking	-0.0657606
-3.177074	pistol	-0.0657606
-2.924988	place	-0.0657606
-3.056977	plan	-0.0657606
-3.177074	plans	-0.0657606
-3.177074	platform	-0.0657606
-3.177074	pointed	-0.0657606
-3.177074	police	-0.0657606
-3.056977	policeman	-0.06576061
-3.177074	policies	-0.0657606
-3.056977	political	-0.06576061
-3.177074	polls	-0.0657606
-3.177074	populous	-0.0657606
-3.056977	portion	-0.1614939
-3.177074	possible	-0.0657606
-3.177074	post	-0.0657606
-2.924988	practices	-0.0657606
-3.177074	praise	-0.0657606
-3.177074	praised	-0.06576059
-3.177074	precincts	-0.0657606
-3.177074	present	-0.0657606
-3.177074	presentments	-0.0657606
-3.177074	previous	-0.0657606
-3.177074	price	-0.06576059
-3.177074	prices	-0.06576059
-3.177074	pricing	-0.0657606
-2.764286	primary	-0.0657606
-3.177074	principal	-0.0657606
-3.056977	priority	-0.0657606
-3.177074	prison	-0.06576059
-3.056977	privilege	-0.1614938
-3.177074	problem	-0.0657606
-3.177074	procedures	-0.06576059
-3.177074	produced	-0.0657606
-3.056977	program	-0.06576061
-3.177074	promise	-0.0657606
-3.177074	promised	-0.0657606
-3.056977	property	-0.0657606
-3.177074	proportionate	-0.06576059
-3.056977	proposed	-0.0657606
-3.177074	protect	-0.0657606
-3.177074	protected	-0.0657606
-3.177074	protests	-0.0657606
-3.056977	provide	-0.06576061
-3.177074	provided	-0.0657606
-3.056977	public	-0.0657606
-3.056977	purchasing	-0.06576061
-3.177074	purpose	-0.0657606
-3.177074	put	-0.0657606
-3.177074	pye	-0.0657606
-3.177074	quickie	-0.0657606
-3.177074	quiet	-0.0657606
-2.764286	race	-0.24094
-3.177074	raises	-0.0657606
-3.177074	rally	-0.0657606
-3.177074	rd.	-0.06576059
-3.177074	re-set	-0.06576059
-3.177074	read	-0.0657606
-3.177074	ready	-0.0657606
-3.177074	real	-0.06576059
-3.177074	realize	-0.0657606
-3.177074	reasonable	-0.0657606
-3.177074	receive	-0.0657606
-2.764286	received	-0.0657606
-3.177074	receives	-0.0657606
-3.177074	recent	-0.0657606
-3.177074	recommendations	-0.0657606
-2.924988	recommended	-0.1109947
-3.177074	reconsideration	-0.0657606
-3.177074	reconstruction	-0.0657606
-3.177074	reduce	-0.06576059
-3.177074	reelection	-0.0657606
-3.177074	regarding	-0.0657606
-3.177074	registered	-0.0657606
-3.177074	registration	-0.0657606
-3.177074	rejected	-0.0657606
-3.177074	relations	-0.06576059
-3.177074	relative	-0.06576059
-3.177074	remedy	-0.0657606
-3.056977	rep.	-0.0657606
-3.177074	repair	-0.0657606
-3.177074	repealed	-0.06576059
-3.177074	reportedly	-0.0657606
-3.056977	reports	-0.0657606
-2.924988	republicans	-0.0657606
-3.177074	requesting	-0.0657606
-3.177074	rescind	-0.1614939
-3.177074	research	-0.0657606
-3.177074	resignation	-0.0657606
-3.056977	resigned	-0.0657606
-2.647252	resolution	-0.06576059
-3.177074	responses	-0.0657606
-3.177074	result	-0.0657606
-3.177074	revised	-0.0657606
-3.177074	revolving	-0.1614938
-3.177074	ridge	-0.0657606
-3.177074	road	-0.0657606
-3.177074	roads	-0.1614938
-3.177074	rob	-0.06576059
-3.177074	robert	-0.06576059
-3.177074	run	-0.0657606
-2.555155	rural	-0.2789771
-2.186385	said	-0.1852924
-3.177074	sales	-0.0657606
-3.177074	sam	-0.0657606
-3.177074	saturday's	-0.0657606
-3.177074	savannah	-0.0657606
-3.177074	saw	-0.06576061
-3.056977	says	-0.1614939
-3.177074	scheduled	-0.06576059
-3.177074	schley	-0.0657606
-2.924988	school	-0.1997958
-3.177074	see	-0.0657606
-3.177074	seek	-0.0657606
-3.177074	seemed	-0.06576059
-3.177074	seen	-0.06576059
-3.177074	sen.	-0.06576059
-3.177074	senate	-0.0657606
-3.056977	sept.	-0.06576061
-3.177074	september-october	-0.0657606
-3.177074	servants	-0.0657606
-3.177074	serve	-0.0657606
-3.177074	services	-0.0657606
-3.056977	session	-0.06576061
-3.177074	sessions	-0.0657606
-3.177074	set	-0.06576059
-3.177074	settlement	-0.0657606
-3.056977	sheriff	-0.0657606
-3.177074	shortly	-0.0657606
-3.177074	shot	-0.0657606
-2.555155	should	-0.278977
-3.177074	sign	-0.0657606
-3.177074	signatures	-0.0657606
-3.177074	similar	-0.0657606
-3.177074	since	-0.06576059
-3.177074	size	-0.0657606
-3.177074	smell	-0.0657606
-3.177074	smooth	-0.0657606
-3.177074	snodgrass	-0.0657606
-3.056977	so	-0.0657606
-2.555155	some	-0.09538727
-3.177074	something	-0.0657606
-3.177074	son	-0.0657606
-3.177074	soon	-0.0657606
-3.177074	sought	-0.0657606
-3.177074	source	-0.0657606
-3.177074	speaker	-0.0657606
-3.177074	specifically	-0.0657606
-3.177074	starts	-0.0657606
-2.647252	state	-0.09538728
-3.177074	steps	-0.0657606
-3.177074	stood	-0.0657606
-3.177074	strong	-0.06576059
-3.177074	studied	-0.0657606
-3.177074	study	-0.0657606
-3.177074	subjected	-0.0657606
-3.177074	succeeded	-0.1614939
-3.056977	such	-0.06576061
-3.056977	suit	-0.0657606
-3.056977	sunday	-0.1614938
-3.177074	superintendent	-0.1271839
-3.177074	superior	-0.1614938
-3.177074	support	-0.0657606
-3.177074	surveillance	-0.0657606
-3.177074	swipe	-0.0657606
-3.056977	system	-0.0657606
-3.177074	tabb	-0.06576059
-3.056977	take	-0.0657606
-3.177074	taken	-0.0657606
-3.177074	takes	-0.0657606
-3.056977	tax	-0.06576061
-3.177074	taxpayers	-0.0657606
-3.056977	teacher	-0.0657606
-3.177074	technical	-0.06576059
-3.177074	telephone	-0.0657606
-2.924988	term	-0.06576061
-3.177074	term-end	-0.06576059
-3.056977	test	-0.0657606
-2.924988	texas	-0.06576061
-3.177074	than	-0.0657606
-3.177074	thanks	-0.0657606
-1.94691	that	-0.1421226
-1.516278	the	-0.2043208
-3.056977	them	-0.0657606
-3.056977	then	-0.0657606
-2.414593	there	-0.1397638
-2.764286	these	-0.09538727
-2.924988	they	-0.06576061
-2.479212	this	-0.0657606
-3.177074	threats	-0.0657606
-3.177074	three	-0.06576059
-3.056977	through	-0.0657606
-3.177074	thursday	-0.0657606
-3.056977	time	-0.0657606
-3.177074	title	-0.0657606
-1.572935	to	-0.1209713
-3.177074	together	-0.0657606
-3.177074	told	-0.06576059
-3.177074	tom	-0.0657606
-3.177074	too	-0.0657606
-3.056977	took	-0.0657606
-3.177074	top	-0.06576059
-3.177074	topics	-0.0657606
-3.177074	tossed	-0.0657606
-3.177074	toward	-0.0657606
-3.177074	tower	-0.0657606
-3.177074	traditional	-0.06576059
-3.177074	traveled	-0.06576059
-3.177074	trouble	-0.1614939
-3.056977	tuesday	-0.0657606
-3.056977	two	-0.06576061
-3.177074	unanimous	-0.0657606
-2.924988	under	-0.0657606
-3.177074	undue	-0.06576059
-3.177074	unit	-0.0657606
-3.177074	unmeritorious	-0.06576059
-3.056977	up	-0.0657606
-3.177074	upon	-0.0657606
-3.177074	urban	-0.06576059
-3.177074	urged	-0.1614939
-3.177074	validity	-0.0657606
-2.924988	vandiver	-0.0657606
-3.177074	veiled	-0.06576059
-3.177074	very	-0.06576059
-3.177074	veteran	-0.06576061
-3.177074	violence	-0.0657606
-3.177074	visit	-0.0657606
-2.764286	vote	-0.1109947
-3.056977	voted	-0.0657606
-2.764286	voters	-0.0657606
-3.177074	votes	-0.0657606
-3.056977	voting	-0.06576061
-3.177074	w.	-0.06576059
-3.177074	wait	-0.0657606
-3.177074	wanted	-0.0657606
-3.056977	wards	-0.0657606
-3.177074	warned	-0.0657606
-3.177074	warning	-0.0657606
-2.15226	was	-0.06576061
-3.177074	washington	-0.0657606
-3.177074	wasn't	-0.0657606
-3.056977	we	-0.0657606
-3.177074	wednesday	-0.0657606
-3.177074	weekend	-0.06576059
-2.924988	welfare	-0.0657606
-3.177074	well	-0.0657606
-3.177074	went	-0.06576059
-3.056977	were	-0.0657606
-3.177074	what	-0.06576059
-3.056977	when	-0.319575
-3.177074	where	-0.0657606
-2.924988	whether	-0.0657606
-2.263913	which	-0.1125486
-3.177074	while	-0.06576059
-2.924988	who	-0.06576061
-3.177074	widespread	-0.0657606
-3.056977	wife	-0.0657606
-3.177074	wife's	-0.0657606
-2.223421	will	-0.1447333
-3.056977	william	-0.0657606
-2.647252	williams	-0.1015631
-3.177074	wind	-0.0657606
-2.555155	with	-0.127184
-3.177074	won	-0.0657606
-3.177074	word	-0.0657606
-2.647252	work	-0.0657606
-3.177074	worked	-0.0657606
-3.177074	worth	-0.319575
-2.358355	would	-0.1580738
-3.056977	year	-0.0657606
-3.177074	years	-0.0657606
-3.177074	yet	-0.06576059

\2-grams:
-0.8499604	$10 per
-0.84634	$100 million
-0.84634	$3 million
-0.84634	$30 million
-0.84634	$4 million
-0.84634	$50 million
-0.7503253	'' ,
-0.3842787	'' .
-2.337832	'' act
-1.94286	'' and
-2.190326	'' as
-2.069761	'' for
-1.93507	'' in
-1.808691	'' of
-2.249805	'' on
-2.357462	'' pension
-2.069761	'' that
-2.26604	'' this
-1.83855	'' to
-2.318741	'' vote
-1.320035	( 1
-1.320035	( 2
-1.136575	( the
-0.6755256	) </s>
-1.32338	) passed
-2.70153	, 1913
-1.446446	, ``
-1.531339	, a
-2.70153	, according
-2.70153	, ala.
-2.70153	, among
-1.288007	, and
-2.638971	, anonymous
-2.70153	, armed
-2.291109	, as
-2.638971	, both
-2.120672	, but
-2.675109	, caldwell
-2.70153	, calmest
-2.675109	, colquitt
-2.638971	, davis
-2.638971	, elected
-2.675109	, four
-2.70153	, george
-2.70153	, grady
-2.70153	, guardians
-2.70153	, hot
-2.120672	, however
-1.734998	, in
-1.98871	, it
-2.70153	, medical
-2.675109	, miller
-2.70153	, mrs.
-2.583435	, one
-2.583435	, or
-2.70153	, pearl
-2.583435	, pelham
-2.70153	, provided
-2.70153	, reportedly
-2.675109	, resigned
-1.962977	, said
-2.70153	, shot
-2.70153	, since
-2.70153	, something
-2.076554	, state
-2.70153	, stood
-2.638971	, texas
-2.083651	, that
-0.7365688	, the
-2.030415	, there
-2.70153	, too
-2.240935	, was
-1.678535	, which
-1.525475	, who
-2.291109	, will
-2.675109	, william
-2.489986	, with
-1.345499	-- a
-1.52898	-- after
-1.354392	-- and
-1.535748	-- committee
-1.542508	-- where
-0.00703202	. </s>
-1.441895	1 )
-1.181234	1 .
-1.400018	1 </s>
-1.212485	1 the
-0.8505207	1,119 votes
-0.8477368	13 primary
-0.8499604	13th year
-0.7651693	18 ,
-0.7663276	1913 .
-0.7663276	1923 .
-0.7663276	1937 .
-0.8449477	1958 with
-0.8499604	1961 session
-0.8505207	1962 governor's
-1.320035	2 )
-1.107634	2 ,
-1.288037	2 </s>
-0.7663276	29-5 .
-0.7663276	402 .
-0.8505207	637 e.
-0.7663276	71 .
-0.8051275	74 and
-0.803861	8 in
-0.7663276	87-31 .
-1.147045	: (
-1.147045	: 1
-2.697451	<s> (
-2.149827	<s> --
-1.146609	<s> ``
-1.447798	<s> a
-2.353343	<s> as
-2.733	<s> ask
-2.75896	<s> attorneys
-2.75896	<s> austin
-2.697451	<s> barber
-2.733	<s> before
-2.733	<s> but
-2.75896	<s> caldwell's
-2.733	<s> colquitt
-2.733	<s> construction
-2.697451	<s> davis
-2.733	<s> despite
-2.75896	<s> during
-2.75896	<s> five
-2.733	<s> four
-2.440805	<s> fulton
-2.697451	<s> georgia
-2.642729	<s> gov.
-2.594137	<s> hartsfield
-2.133607	<s> he
-2.75896	<s> henry
-2.047264	<s> his
-2.733	<s> however
-2.733	<s> i
-2.733	<s> implementation
-1.951936	<s> in
-1.315289	<s> it
-2.733	<s> many
-2.642729	<s> mayor
-2.75896	<s> meanwhile
-2.75896	<s> merger
-2.75896	<s> nevertheless
-2.474366	<s> on
-2.17685	<s> ordinary
-2.149827	<s> pelham
-2.75896	<s> regarding
-2.733	<s> rep.
-2.75896	<s> robert
-2.75896	<s> sam
-2.75896	<s> schley
-2.733	<s> sheriff
-2.594137	<s> state
-0.5669476	<s> the
-2.697451	<s> they
-2.166676	<s> vandiver
-2.733	<s> wards
-2.17685	<s> when
-2.75896	<s> while
-1.479283	`` a
-2.343677	`` abandoned
-1.341285	`` are
-2.328156	`` attorney
-2.238966	`` being
-2.343677	`` considering
-2.328156	`` coolest
-2.343677	`` deserves
-2.343677	`` endorse
-2.343677	`` everything
-2.343677	`` failure
-2.343677	`` give
-1.674572	`` has
-1.720724	`` in
-2.3063	`` irregularities
-2.062102	`` is
-2.27133	`` no
-2.343677	`` only
-2.328156	`` provide
-2.343677	`` quickie
-2.328156	`` take
-1.892461	`` that
-1.68316	`` there
-1.719316	`` these
-1.691921	`` this
-1.605167	`` to
-2.328156	`` we
-2.238966	`` work
-2.504706	a $10
-2.504706	a battle
-1.919815	a bit
-2.358125	a campaign
-1.318907	a candidate
-2.504706	a constitutional
-2.504706	a daughter
-2.504706	a disproportionate
-2.504706	a dispute
-2.504706	a doctor
-2.504706	a drop
-2.504706	a fair
-2.401964	a first
-2.504706	a friendly
-2.504706	a gun
-2.358125	a highway
-2.48204	a legislator
-2.504706	a long
-2.48204	a manner
-2.48204	a meeting
-2.401964	a new
-2.48204	a number
-2.48204	a permit
-2.504706	a pistol
-2.48204	a plan
-2.48204	a policeman
-2.48204	a portion
-2.401964	a primary
-2.48204	a privilege
-2.504706	a proportionate
-2.504706	a relative
-1.876684	a resolution
-2.504706	a result
-1.919815	a revolving
-2.450732	a school
-2.504706	a similar
-2.504706	a son
-1.876684	a state
-2.504706	a study
-2.504706	a swipe
-2.48204	a system
-2.504706	a top
-2.504706	a unanimous
-1.919815	a veteran
-2.401964	a vote
-2.48204	a year
-0.8499604	abandoned property
-0.7780845	about the
-0.8491381	accepted practices
-0.7865078	according to
-0.8505207	achieve greater
-1.107634	act ,
-1.247567	act ``
-1.324136	act seemed
-1.110187	action .
-1.142051	action of
-1.295818	action would
-0.8449477	actions should
-0.8505207	adamant protests
-0.278754	added that
-1.148679	additional deputies
-1.138763	additional rural
-0.9956353	adjournment .
-1.141506	adjournment monday
-0.8449477	adjustments should
-1.072922	administration ''
-1.063623	administration and
-0.8051275	administrators and
-1.296926	after a
-0.8040529	after he
-1.438173	after mayor
-0.7651693	afternoon ,
-0.7780845	against the
-0.5021496	age as
-0.8505207	agreed upon
-0.8499604	agriculture teacher
-0.7865078	aid to
-0.9936731	airport ,
-1.120032	airport be
-0.7663276	aj .
-0.7663276	ala. .
-0.7780845	all the
-0.5070311	allen jr.
-0.7865078	allotted to
-0.8491381	allow legislators
-0.7663276	allowances .
-0.7865078	allowed to
-0.8505207	alpharetta prison
-1.322471	also commented
-1.284198	also is
-1.320035	also recommended
-0.8505207	alternative courses
-0.8102306	ambiguous ''
-0.7865078	amendment to
-0.8499604	amicable property
-0.8499604	among them
-1.620644	an amicable
-1.620644	an assistant
-1.620644	an interim
-1.620644	an investigation
-0.9827626	an orderly
-1.892559	and ``
-1.703112	and a
-2.391486	and administrators
-2.391486	and alpharetta
-2.270369	and an
-1.789185	and bush
-2.347721	and chairman
-2.391486	and compensation
-2.391486	and contracts
-2.347721	and elected
-2.147728	and election
-2.391486	and equitable
-2.391486	and expended
-2.373233	and follow
-2.147728	and fulton
-2.391486	and head
-2.097343	and his
-2.391486	and improving
-1.712815	and in
-2.270369	and its
-2.391486	and often
-2.391486	and operation
-2.347721	and place
-2.391486	and promised
-2.391486	and re-set
-2.391486	and reduce
-2.391486	and revised
-2.391486	and thanks
-1.193012	and the
-2.373233	and then
-2.175296	and there
-2.391486	and urban
-2.391486	and veiled
-2.373233	and we
-2.391486	and weekend
-2.373233	and wife
-2.270369	and williams
-0.823257	announced that
-1.320035	anonymous calls
-1.324136	anonymous midnight
-1.324136	anonymous telephone
-0.8491381	any irregularities
-1.149794	apparently intends
-1.148679	apparently made
-0.8051275	appointed and
-0.7804745	appointment of
-0.7651693	appraisers ,
-0.7804745	approval of
-0.8025982	approve a
-1.149794	approved earlier
-1.122659	approved will
-1.542508	are getting
-1.542508	are outmoded
-1.542508	are paid
-1.515752	are some
-1.542508	are well
-0.7865078	areas to
-0.8449477	armed with
-1.946077	as 71
-1.946077	as 74
-1.709316	as ``
-0.8680617	as a
-1.823577	as his
-1.946077	as man
-1.475046	as of
-1.946077	as opelika
-1.901451	as state
-1.464524	as the
-1.930855	as they
-0.7780845	aside the
-1.147045	ask jail
-1.015761	ask the
-1.149794	asked him
-1.147045	asked whether
-0.7780845	asking the
-0.8499604	assistance program
-0.8491381	assistant more
-0.8051275	association and
-1.798348	at 637
-1.798348	at church
-0.2835309	at the
-1.743702	at which
-1.372745	atlanta ''
-1.226845	atlanta ,
-1.354392	atlanta and
-1.542508	atlanta bar
-1.542508	atlanta police
-1.144267	atlanta's new
-1.149794	atlanta's recent
-0.7663276	attended .
-1.072922	attorney ''
-0.9956353	attorney .
-0.823257	attorneys for
-0.9956353	audience .
-1.117421	audience was
-0.8491381	aug. 2
-0.7651693	austin ,
-0.7663276	authorities .
-1.059048	authority a
-1.141506	authority bonds
-0.8505207	automobile title
-0.8449477	available funds
-0.7804745	awarding of
-1.149794	b. d.
-1.141506	b. hartsfield
-1.144267	back federal
-1.030426	back to
-0.7651693	ballot ,
-0.7663276	bankers .
-0.8505207	bar association
-1.107634	barber ,
-1.142051	barber of
-1.324136	barber tossed
-0.803861	battle in
-2.140187	be allowed
-2.140187	be combined
-2.140187	be directed
-2.140187	be effected
-1.521061	be employed
-2.140187	be formally
-2.140187	be given
-2.129802	be held
-2.114971	be irregularities
-2.140187	be issued
-2.129802	be made
-2.129802	be operated
-2.140187	be periodic
-2.090749	be received
-2.140187	be repealed
-2.140187	be sought
-1.521061	be succeeded
-2.140187	be taken
-1.496426	be the
-0.8025982	became a
-0.8025982	become a
-1.685186	been agreed
-1.657387	been an
-1.681372	been charged
-1.685186	been consulted
-1.681372	been expected
-1.666508	been mayor
-1.675825	been under
-1.148679	before adjournment
-1.149794	before making
-0.8051275	begin and
-0.8952922	being at
-1.543193	being done
-1.543193	being offered
-1.543193	being ready
-0.823257	believes ``
-0.8051275	bellwood and
-0.8499604	berry jr.
-0.8499604	best interest
-0.8366862	birth as
-0.4804198	bit of
-0.5072351	blue ridge
-0.9956353	board .
-1.019901	board of
-0.8499604	body's action
-0.6825966	bond issue
-1.32338	bond money
-0.8786353	bonds .
-1.556096	bonds </s>
-1.48824	bonds for
-1.61757	bonds proposed
-1.569659	bonds would
-1.322471	both candidates
-1.324136	both chambers
-1.324136	both governments
-0.8339669	bowden was
-0.8505207	brief interlude
-0.8505207	brought enthusiastic
-0.8102306	burden ''
-0.6305531	bush ,
-1.32338	bush got
-1.311812	but he
-1.288037	but it
-1.136575	but the
-1.507485	by a
-1.760453	by at
-1.829589	by controversy
-1.749158	by fulton
-1.829589	by ivan
-1.834964	by mayor-nominate
-1.834964	by rob
-1.829589	by tax
-1.395442	by the
-1.829589	by then
-0.7663276	byrd .
-0.84634	byrd's campaign
-0.9936731	caldwell ,
-1.122659	caldwell is
-0.8505207	caldwell's resignation
-0.7651693	callan ,
-1.110187	calls .
-1.200977	calls and
-1.324136	calls soon
-0.8407973	calmest election
-1.226845	campaign ,
-1.230208	campaign .
-1.542508	campaign coordinator
-1.542508	campaign leading
-1.542508	campaign starts
-0.8353245	can be
-1.198925	candidate ,
-1.357734	candidate for
-0.7690235	candidate in
-0.9936731	candidates ,
-1.133329	candidates on
-0.8505207	career goes
-0.84634	carey williams
-0.8025982	carry a
-0.7804745	cent of
-0.8505207	certain thursday
-1.107634	chairman ,
-1.324136	chairman james
-1.142051	chairman of
-0.8366862	chambers as
-1.148679	charge jan.
-1.019901	charge of
-1.130637	charged by
-1.149794	charged mental
-0.7804745	cheshire of
-0.8491381	child welfare
-0.7663276	church .
-1.147045	citizens committee
-1.149794	citizens feared
-1.524341	city ''
-1.596451	city ``
-1.790908	city council
-1.790908	city employes
-1.786048	city executive
-1.388519	city of
-1.790908	city officials
-1.786048	city personnel
-1.786048	city purchasing
-0.8499604	clerical personnel
-1.125302	colquitt </s>
-1.148679	colquitt policeman
-0.7865078	combined to
-0.50418	commented on
-0.8366862	commerce is
-0.8499604	commissioner's office
-1.198925	committee ,
-0.7375869	committee .
-1.448021	committee approval
-0.7663276	compensation .
-0.823257	concessionaires for
-0.7663276	conducted .
-0.8505207	congress does
-0.8505207	congressional delegation
-0.8505207	congressmen specifically
-0.7780845	considering the
-0.8505207	consistently opposed
-0.7651693	constitution ,
-0.8505207	constitutional amendment
-1.141506	construction bonds
-1.141506	construction work
-0.8505207	consulted yet
-0.7865078	continue to
-0.8505207	contracts let
-0.4742023	controversy ,
-0.9936731	coolest ,
-1.130637	coolest election
-0.823257	coordinator for
-0.7804745	cost of
-0.8051275	costs and
-0.803861	council in
-1.072922	counties ''
-1.061329	counties in
-1.633067	county ''
-1.400605	county ,
-2.003307	county democratic
-1.995616	county general
-1.984552	county grand
-1.884915	county has
-1.984552	county jail
-1.995616	county legislator
-1.984552	county must
-1.995616	county purchasing
-1.995616	county rep.
-1.372629	county school
-1.931882	county should
-2.003307	county unit
-1.130637	couple has
-1.117421	couple was
-0.8491381	courses must
-1.348328	court ``
-1.436434	court friday
-1.447333	court judge
-1.400018	court which
-0.8499604	court's wards
-0.823257	courts for
-0.8102306	criticisms ''
-0.8339669	crowd was
-0.7663276	cruelty .
-0.8477368	d. pelham
-0.823257	daniel's ``
-0.8499604	date so
-0.7651693	daughter ,
-1.107634	davis ,
-1.200977	davis and
-1.315904	davis received
-0.8491381	day increase
-0.8477368	days after
-0.8505207	death march
-0.8499604	defeated felix
-0.803861	delegation in
-0.8499604	democratic executive
-1.011099	department ,
-1.359894	department .
-1.611348	department ``
-1.787811	department apparently
-1.692524	department is
-1.787811	department public
-1.157819	department source
-0.8505207	department's handling
-1.019901	departments of
-1.125302	departments which
-1.125302	deputies </s>
-1.120032	deputies be
-0.7780845	deserves the
-0.4794574	despite the
-0.8499604	details were
-0.8505207	determine what
-1.149794	did find
-1.141506	did not
-1.144267	didn't have
-1.149794	didn't smell
-0.7865078	directed to
-0.7651693	director ,
-0.8435598	disable this
-0.8505207	disproportionate burden
-0.8449477	dispute with
-0.7663276	dissents .
-0.8477368	distribute these
-0.7804745	distribution of
-0.8477368	divorce from
-0.8435598	do this
-0.7651693	doctor ,
-0.8499604	does provide
-0.8421764	done on
-0.8491381	dorsey added
-0.7804745	drop of
-0.7780845	during the
-0.8505207	durwood pye
-0.8421764	duty at
-0.8477368	e. pelham
-0.8421764	each county
-0.803861	earlier in
-0.6305531	education ,
-1.310552	education should
-0.7780845	effect the
-0.8102306	effected ''
-0.8505207	effective date
-0.8051275	efficiency and
-0.7651693	elaborate ,
-1.107634	elected ,
-1.324136	elected servants
-1.320035	elected texas
-0.8625617	election ,
-1.157434	election .
-1.978578	election ballot
-1.9346	election campaign
-1.346962	election i
-1.972445	election laws
-1.978578	election produced
-1.539299	election to
-1.306894	election was
-0.8499604	eliminate political
-0.823257	emphasizing that
-1.133329	employed at
-1.097079	employed for
-0.7663276	employes .
-1.138763	enabling funds
-1.149794	enabling legislation
-0.7865078	encouragement to
-0.7804745	end of
-0.8505207	endorse increased
-0.4891783	enter a
-0.8025982	entering a
-0.8339669	enthusiasm was
-0.8505207	enthusiastic responses
-0.8102306	equitable ''
-0.7804745	establishment of
-0.8505207	event congress
-0.5072351	ever saw
-0.8499604	every time
-0.8505207	everything went
-0.8102306	evidence ''
-0.4804198	exception of
-0.5067315	executive committee
-1.380731	expected for
-0.3914455	expected to
-0.8102306	expended ''
-0.8505207	expense allowances
-0.8505207	experienced clerical
-0.8499604	expires jan.
-0.8353245	extern be
-0.8366862	face is
-0.8051275	fact and
-0.7865078	failure to
-0.8051275	fair and
-0.7651693	farms ,
-0.823257	feared that
-0.8505207	featured speaker
-1.448021	federal aid
-0.8029144	federal funds
-1.448021	federal support
-0.823257	feel that
-0.8051275	fees and
-1.148679	felix bush
-1.149794	felix tabb
-0.8499604	filed suit
-0.823257	find that
-0.823257	fire for
-1.447333	first $30
-1.390151	first be
-1.445123	first priority
-1.436434	first race
-0.7865078	fit to
-0.8499604	five per
-1.149794	follow generally
-1.149794	follow shortly
-1.360294	for a
-2.160926	for byrd
-2.160926	for child
-2.068026	for city
-2.160926	for divorce
-2.150694	for future
-1.541393	for governor
-2.150694	for home
-2.089546	for its
-2.160926	for lt.
-2.136078	for more
-2.136078	for night
-2.150694	for public
-2.160926	for reelection
-2.160926	for repair
-2.068026	for rural
-2.068026	for some
-1.023696	for the
-0.8380523	force it
-0.8505207	formally read
-0.8421764	former county
-0.8505207	foster homes
-0.7780845	found the
-1.148679	four additional
-1.149794	four days
-1.178229	friday ,
-1.181234	friday .
-1.431041	friday an
-1.286493	friday in
-0.8499604	friendly test
-1.400018	from his
-1.212485	from the
-1.447333	from undue
-1.447333	from unmeritorious
-0.8505207	fully worked
-0.4841179	fulton county
-1.982996	fulton health
-1.346676	fulton legislators
-1.982996	fulton ordinary's
-1.349438	fulton superior
-1.978198	fulton tax
-1.982996	fulton taxpayers
-1.125302	fund </s>
-1.147045	fund under
-1.039928	funds ''
-1.329784	funds .
-1.483024	funds and
-1.640486	funds be
-1.742141	funds granted
-1.742141	funds might
-1.738009	funds through
-0.8353245	further said
-1.130637	future fulton
-1.144267	future legislature
-0.7651693	gainesville ,
-0.8505207	garland byrd's
-1.149794	general assistance
-1.130637	general election
-0.8505207	generally accepted
-0.8505207	george p.
-1.445123	georgia house
-1.436434	georgia legislature
-1.441895	georgia republicans
-1.436434	georgia voters
-1.447333	georgia's automobile
-1.447333	georgia's congressmen
-1.447333	georgia's most
-1.447333	georgia's registration
-0.8505207	getting strong
-0.8499604	give priority
-0.823257	given that
-0.7865078	go to
-0.8499604	goes back
-0.8380523	good his
-0.8491381	gop chairman
-1.149794	got 402
-1.148679	got himself
-1.447333	gov. garland
-1.447333	gov. marvin
-1.447333	gov. price
-1.441895	gov. vandiver
-0.8102306	governments ''
-1.061329	governor in
-1.130637	governor would
-0.8477368	governor's race
-0.8505207	grady hospital
-1.449648	grand juries
-0.4070863	grand jury
-0.823257	granted for
-0.8505207	greater efficiency
-0.4746774	griffin .
-0.8051275	guardians and
-0.84634	gubernatorial campaign
-0.8051275	gun and
-0.6821109	had been
-1.324828	had over-all
-0.7804745	handful of
-0.7804745	handling of
-0.8477368	hard-fought primary
-0.8491381	harry davis
-1.226845	hartsfield ,
-1.542508	hartsfield announced
-1.542508	hartsfield filed
-1.496637	hartsfield has
-1.539758	hartsfield home
-1.57767	has a
-0.5900437	has been
-1.839613	has consistently
-1.839613	has incorporated
-1.197104	has not
-1.839613	has seen
-0.8583822	have a
-1.53243	have these
-0.8429698	have to
-1.305218	he ,
-1.677015	he added
-1.682261	he resigned
-1.685866	he scheduled
-1.028841	he will
-1.626602	he would
-0.823257	head for
-0.8449477	health department
-0.8505207	heavily traveled
-1.148679	held sept.
-1.148679	held tuesday
-0.8505207	henry l.
-1.049696	highway bond
-0.4346682	highway department
-1.68989	highway reconstruction
-0.7663276	highways .
-0.7865078	him to
-1.059048	himself a
-1.030426	himself to
-1.910763	his 13th
-1.90437	his age
-1.810357	his election
-1.879809	his first
-1.90437	his petition
-1.90437	his political
-1.910763	his post
-1.910763	his promise
-1.879809	his race
-1.865002	his resolution
-1.90437	his wife
-1.910763	his wife's
-0.8025982	hold a
-1.144267	home --
-1.122659	home is
-0.7663276	homes .
-0.8477368	hopper friday
-0.8051275	hospital and
-0.8499604	hot controversy
-1.542508	house hopper
-1.349923	house in
-1.522316	house monday
-1.291748	house to
-1.539758	house voted
-0.6305531	however ,
-1.133504	however .
-0.7780845	hurdle the
-1.32338	i didn't
-0.6829274	i ever
-0.4804198	implementation of
-0.8499604	improving them
-2.413327	in 1923
-2.413327	in 1958
-1.305983	in a
-2.401034	in blue
-2.413327	in each
-2.413327	in effect
-2.413327	in expense
-2.413327	in experienced
-2.413327	in fact
-2.355273	in federal
-2.413327	in foster
-2.236207	in fulton
-2.196429	in his
-2.328705	in its
-2.401034	in our
-2.413327	in saturday's
-2.413327	in savannah
-2.413327	in term-end
-0.4202155	in the
-2.279998	in this
-2.401034	in voting
-2.413327	in washington
-2.196429	in which
-0.8051275	inadequate and
-0.8491381	incorporated into
-1.324828	increase can
-0.6547878	increase in
-0.8477368	increased federal
-0.8102306	influences ''
-0.8505207	insure order
-0.7865078	intends to
-1.061329	interest in
-1.019901	interest of
-0.8499604	interim citizens
-0.7651693	interlude ,
-0.8477368	intern or
-1.311812	into its
-1.136575	into the
-1.322471	into voting
-0.7865078	inure to
-0.8499604	investigate reports
-0.7804745	investigation of
-1.213786	irregularities ''
-1.299762	irregularities at
-1.322471	irregularities took
-1.178207	is a
-1.913676	is asking
-1.83735	is at
-0.883157	is expected
-1.913676	is harry
-1.586652	is in
-1.913676	is lacking
-1.886861	is one
-1.913676	is very
-0.7804745	issuance of
-1.540657	issue approved
-1.518458	issue some
-0.8287836	issue the
-1.483673	issue will
-0.8505207	issued every
-2.077046	it (
-1.428214	it ,
-2.077046	it added
-2.09056	it approved
-2.099999	it believes
-2.09056	it did
-2.099999	it found
-1.958426	it has
-2.077046	it listed
-2.077046	it recommended
-1.894215	it said
-2.09056	it says
-1.531416	it to
-1.478381	it urged
-2.09056	it voted
-2.099999	it wanted
-1.414653	it was
-0.7663276	item .
-0.803861	items in
-1.542508	its 1961
-1.542508	its appointed
-1.542508	its operating
-1.542508	its platform
-1.535748	its practices
-0.8025982	itself a
-0.5072351	ivan allen
-0.8505207	j. m.
-0.8421764	jackson county
-1.213786	jail ''
-1.200977	jail and
-1.322471	jail deputies
-0.8505207	james w.
-0.5067315	jan. 1
-0.8505207	john tower
-0.6305531	jr. ,
-1.133504	jr. .
-0.8505207	judge durwood
-0.7651693	juries ,
-0.5016435	jurors said
-1.567467	jury .
-2.073337	jury also
-2.082048	jury commented
-2.082048	jury did
-2.088074	jury further
-2.073337	jury had
-2.088074	jury praised
-1.454137	jury recommended
-0.4340339	jury said
-2.082048	jury took
-0.8499604	just like
-0.7780845	keeping the
-0.8505207	l. bowden
-0.803861	lacking in
-0.8505207	largest hurdle
-0.8505207	last november
-1.324136	law may
-1.27662	law was
-1.288037	law which
-1.097079	laws ``
-1.149794	laws studied
-0.7865078	leading to
-0.7780845	learned the
-0.7804745	ledford of
-0.823257	legislation that
-0.9936731	legislator ,
-1.122659	legislator will
-1.348328	legislators ``
-1.441895	legislators act
-1.447333	legislators allotted
-1.235781	legislators to
-1.348328	legislature ``
-1.447333	legislature against
-1.447333	legislature sessions
-1.395056	legislature will
-0.8505207	less populous
-0.823257	let for
-1.141506	like being
-1.030426	like to
-0.8366862	likely will
-0.7651693	liquor ,
-1.288037	listed his
-1.299762	listed on
-1.136575	listed the
-0.8505207	lived together
-0.8499604	local citizens
-0.7651693	long ,
-0.8477368	lt. gov.
-0.8505207	m. cheshire
-0.8491381	mac barber
-0.9956353	made .
-1.149794	made good
-0.8505207	major items
-0.2712451	make the
-0.8025982	making a
-0.8051275	man and
-0.8505207	management takes
-1.061329	manner in
-1.097079	manner that
-1.149794	many local
-1.019901	many of
-0.8505207	march 18
-0.8407973	marked by
-0.8505207	married aug.
-0.8499604	marvin griffin
-0.7651693	matters ,
-0.8353245	may be
-1.431041	mayor hartsfield
-1.219014	mayor of
-1.390151	mayor said
-1.445123	mayor william
-1.322471	mayor's attorney
-1.324136	mayor's occupation
-1.324136	mayor's present
-0.8499604	mayor-nominate ivan
-0.7651693	meanwhile ,
-0.8505207	medical intern
-0.9936731	meeting ,
-1.148679	meeting held
-0.7804745	members of
-0.8505207	mental cruelty
-0.7780845	mention the
-0.8499604	merger proposed
-0.8505207	midnight phone
-0.8505207	might disable
-0.50418	miller county
-1.529814	million highway
-1.346995	million to
-0.5045102	million worth
-0.8051275	modernizing and
-1.230208	monday .
-1.542508	monday afternoon
-1.354392	monday and
-1.349923	monday in
-1.291748	monday to
-0.9956353	money .
-1.125302	money it
-1.321259	more term
-0.6829274	more than
-0.8505207	most heavily
-0.8505207	mrs. j.
-0.8499604	multi-million-dollar airport
-1.280393	must be
-1.324136	must hold
-1.324136	must sign
-0.7804745	names of
-0.84634	near being
-0.7651693	nevertheless ,
-1.598126	new bonds
-1.620644	new management
-1.620644	new multi-million-dollar
-1.590832	new rural
-0.9810123	new school
-0.8491381	newly elected
-0.8477368	next legislature
-1.178229	night ,
-1.290353	night and
-1.286493	night in
-1.415253	night there
-1.436434	no --
-1.447333	no dissents
-1.447333	no evidence
-1.447333	no word
-0.4804198	none of
-1.611893	not been
-1.619961	not elaborate
-1.619961	not fully
-1.619961	not lived
-1.619961	not run
-1.616676	not so
-0.8407973	notice would
-0.8505207	november rejected
-0.2716588	number of
-0.7780845	obtain the
-0.8366862	occupation as
-2.59798	of $50
-2.59798	of 29-5
-1.658124	of a
-2.575213	of additional
-2.575213	of administration
-2.59798	of all
-2.59798	of appraisers
-2.007349	of atlanta
-2.575213	of atlanta's
-2.59798	of birth
-2.543772	of both
-2.575213	of candidates
-2.410882	of city
-2.59798	of commerce
-2.543772	of education
-2.494816	of federal
-2.59798	of fees
-2.494816	of friday
-2.30927	of fulton
-2.59798	of gainesville
-1.412562	of georgia's
-2.494816	of gov.
-2.575213	of griffin
-2.450824	of highway
-2.59798	of keeping
-2.543772	of legislators
-2.59798	of liquor
-2.59798	of modernizing
-2.575213	of office
-2.494816	of one
-2.575213	of other
-2.575213	of our
-2.59798	of possible
-2.59798	of registered
-2.410882	of rural
-2.575213	of such
-2.575213	of sunday
-2.543772	of texas
-0.6839699	of the
-1.984094	of these
-1.943228	of this
-2.013391	of trouble
-2.007349	of two
-2.59798	of violence
-2.494816	of voters
-0.8407973	off by
-1.059048	offer a
-1.015761	offer the
-0.8421764	offered there
-0.9936731	office ,
-1.149794	office expires
-0.8449477	offices should
-0.8353245	official said
-0.7865078	officials to
-0.8505207	often ambiguous
-0.8505207	old ones
-1.566742	on a
-1.771069	on fulton
-1.834767	on other
-1.834767	on pay
-1.798935	on some
-0.5585311	on the
-1.828712	on whether
-1.448021	one brief
-1.44311	one more
-0.7494875	one of
-0.8491381	ones are
-0.8025982	only a
-0.7651693	opelika ,
-0.8380523	opened his
-1.063623	operated and
-1.061329	operated in
-0.8505207	operating procedures
-0.7804745	operation of
-0.803861	opposed in
-0.803861	opposes in
-1.441895	or 2
-1.447333	or extern
-1.447333	or inadequate
-1.441895	or whether
-0.7663276	order .
-1.130637	orderly election
-1.148679	orderly implementation
-1.322471	ordinary apparently
-1.324136	ordinary carey
-1.311812	ordinary williams
-0.8491381	ordinary's court
-1.149794	other matters
-1.149794	other topics
-1.149794	our congressional
-1.149794	our less
-1.107634	out ,
-1.320035	out into
-1.247567	out that
-0.8477368	outgoing jury
-0.8477368	outmoded or
-0.8477368	outright or
-0.8499604	over-all charge
-0.8505207	p. callan
-0.8505207	paid off
-1.147045	party chairman
-1.149794	party opposes
-0.8499604	pass enabling
-1.072922	passed ''
-1.061329	passed in
-0.7663276	past .
-0.5072351	pay raises
-0.84634	pearl williams
-1.543193	pelham pointed
-1.543193	pelham rd.
-0.8881639	pelham said
-1.483673	pelham will
-0.8499604	pension plan
-1.149794	per cent
-1.149794	per day
-0.8505207	periodic surveillance
-1.015761	permit the
-1.030426	permit to
-1.122659	personnel as
-1.149794	personnel policies
-1.395056	petition as
-1.445123	petition charged
-1.441895	petition listed
-1.390151	petition said
-1.147045	petitions out
-1.149794	petitions requesting
-0.8491381	phone calls
-0.8499604	picking up
-0.7651693	pistol ,
-1.181234	place .
-1.282668	place a
-1.447333	place names
-1.219014	place of
-1.097079	plan for
-1.133329	plan there
-0.7865078	plans to
-0.7663276	platform .
-0.8491381	pointed out
-0.8449477	police department
-1.149794	policeman put
-1.149794	policeman tom
-0.8102306	policies ''
-1.149794	political career
-1.149794	political influences
-1.107634	polls ,
-1.15605	polls to
-1.27662	polls was
-0.8499604	populous counties
-0.4804198	portion of
-0.823257	possible ``
-0.803861	post in
-1.197833	practices in
-1.142051	practices of
-1.288037	practices which
-0.8051275	praise and
-0.7780845	praised the
-0.7865078	precincts to
-0.8491381	present term
-0.823257	presentments that
-0.8491381	previous grand
-0.8505207	price daniel's
-0.8505207	prices reasonable
-0.8491381	pricing practices
-1.436434	primary after
-1.410115	primary election
-1.441895	primary under
-1.400018	primary which
-0.8051275	principal and
-1.072922	priority ''
-1.149794	priority item
-0.8505207	prison farms
-0.5057091	privilege resolution
-0.7663276	problem .
-0.7780845	procedures the
-0.823257	produced ``
-1.072922	program ''
-1.061329	program in
-0.7663276	promise .
-0.84634	promised an
-1.072922	property ''
-1.149794	property settlement
-0.8505207	proportionate distribution
-1.125302	proposed </s>
-1.130637	proposed by
-0.803861	protect in
-0.8380523	protected </s>
-0.7804745	protests of
-1.148679	provide enabling
-1.136037	provide this
-0.823257	provided that
-1.147045	public education
-1.149794	public relations
-1.138763	purchasing department
-1.148679	purchasing departments
-0.7804745	purpose of
-0.8380523	put it
-0.7865078	pye to
-0.8102306	quickie ''
-0.7651693	quiet ,
-0.3856016	race ,
-1.380731	race for
-0.9956353	raises .
-1.097079	raises for
-0.7865078	rally to
-0.8505207	rd. aj
-0.7780845	re-set the
-0.84634	read monday
-0.7865078	ready to
-0.8505207	real smooth
-0.823257	realize ``
-0.8102306	reasonable ''
-0.8449477	receive some
-1.306143	received ''
-1.447333	received 1,119
-1.290353	received and
-1.441895	received anonymous
-0.8499604	receives none
-0.8477368	recent primary
-0.8102306	recommendations ''
-1.357734	recommended ``
-1.414294	recommended by
-0.7850924	recommended that
-0.7804745	reconsideration of
-0.84634	reconstruction bonds
-0.7780845	reduce the
-0.7663276	reelection .
-0.8499604	regarding atlanta's
-0.8477368	registered voters
-0.8051275	registration and
-0.8025982	rejected a
-0.8505207	relations director
-0.8505207	relative handful
-0.8102306	remedy ''
-1.148679	rep. b.
-1.149794	rep. mac
-0.84634	repair work
-0.8505207	repealed outright
-0.8477368	reportedly received
-1.019901	reports of
-1.117421	reports was
-1.535748	republicans are
-1.472392	republicans be
-1.535748	republicans must
-1.535748	republicans who
-1.496637	republicans would
-0.823257	requesting that
-0.4794574	rescind the
-0.84634	research being
-0.8491381	resignation had
-1.125302	resigned his
-1.148679	resigned tuesday
-1.779002	resolution )
-1.329535	resolution ,
-1.333799	resolution .
-1.75575	resolution being
-1.75575	resolution monday
-1.786048	resolution passed
-1.413524	resolution to
-1.692645	resolution which
-1.712678	resolution would
-0.8477368	responses from
-0.7804745	result of
-0.7865078	revised to
-0.5072351	revolving fund
-1.149794	ridge brought
-1.148679	ridge meeting
-0.8499604	road construction
-0.8076252	roads authority
-0.804583	roads bonds
-0.8505207	rob ledford
-0.8505207	robert snodgrass
-0.823257	run for
-1.477781	rural and
-1.623994	rural road
-0.3690972	rural roads
-1.051517	said ,
-0.8856108	said .
-1.87843	said ``
-1.726118	said a
-2.156281	said friday
-2.135182	said he
-2.026441	said his
-1.734222	said in
-1.16325	said it
-2.191982	said sunday
-1.478152	said that
-1.589471	said the
-1.546815	said there
-2.178457	said they
-2.201429	said wednesday
-0.8366862	sales will
-0.8499604	sam caldwell
-0.8407973	saturday's election
-0.8421764	savannah at
-1.072922	saw ''
-1.061329	saw in
-0.4971147	says that
-0.7780845	scheduled the
-0.8421764	schley county
-1.542781	school board
-1.544813	school principal
-0.5045102	school superintendent
-0.8380523	see it
-0.7865078	seek to
-0.8505207	seemed certain
-0.8505207	seen fit
-0.8505207	sen. john
-1.130637	senate by
-1.122659	senate is
-1.149794	sept. 13
-1.149794	sept. 8
-0.8491381	september-october term
-0.8477368	servants from
-0.7865078	serve to
-0.803861	services in
-1.122659	session as
-1.141506	session monday
-0.7663276	sessions .
-0.8505207	set aside
-0.8407973	settlement has
-1.148679	sheriff felix
-1.120032	sheriff said
-0.7663276	shortly .
-0.8499604	shot himself
-0.3659843	should be
-1.623994	should receive
-1.623994	should serve
-0.8499604	sign petitions
-0.7804745	signatures of
-0.84634	similar resolution
-0.8505207	since 1937
-0.7804745	size of
-0.8025982	smell a
-0.8102306	smooth ''
-0.7651693	snodgrass ,
-1.149794	so quiet
-1.097079	so that
-1.620644	some $3
-1.620644	some members
-0.8958083	some of
-1.61757	some portion
-1.61757	some time
-0.8380523	something it
-0.7651693	son ,
-0.8477368	soon after
-0.7663276	sought .
-1.120032	source said
-1.149794	source told
-0.7663276	speaker .
-0.8499604	specifically asked
-0.7651693	starts ,
-1.906106	state board
-1.912098	state courts
-1.855571	state funds
-1.912098	state gop
-1.27111	state highway
-1.897444	state law
-1.906106	state party
-1.912098	state rally
-1.278094	state welfare
-1.855571	state with
-0.7865078	steps to
-0.8407973	stood by
-0.8505207	strong encouragement
-0.8051275	studied and
-0.7804745	study of
-0.7865078	subjected to
-0.5036715	succeeded by
-1.138763	such funds
-1.148679	such reports
-1.097079	suit for
-1.030426	suit to
-0.5067315	sunday night
-0.6305531	superintendent ,
-1.289898	superintendent is
-0.5067315	superior court
-0.823257	support for
-0.7804745	surveillance of
-0.8421764	swipe at
-1.144267	system --
-1.125302	system which
-0.8353245	tabb said
-1.148679	take petitions
-1.149794	take steps
-0.8499604	taken :
-0.8499604	takes charge
-1.149794	tax authorities
-1.149794	tax commissioner's
-0.7663276	taxpayers .
-0.9936731	teacher ,
-1.148679	teacher pay
-0.8505207	technical details
-0.8491381	telephone calls
-1.315904	term jury
-1.142051	term of
-1.15605	term to
-0.8505207	term-end presentments
-1.148679	test suit
-1.015761	test the
-1.288037	texas </s>
-1.324136	texas bankers
-1.324136	texas sen.
-1.059048	than a
-1.149794	than three
-0.7804745	thanks of
-2.247907	that :
-1.518154	that ``
-1.623315	that an
-2.259809	that any
-2.247907	that before
-2.259809	that entering
-2.259809	that enthusiasm
-2.0874	that fulton
-2.230982	that georgia
-2.177671	that he
-1.723086	that in
-2.247907	that many
-2.247907	that none
-2.259809	that reconsideration
-2.247907	that such
-2.259809	that technical
-0.8262377	that the
-2.10827	that there
-2.230982	that vandiver
-2.247907	that when
-1.576893	that will
-2.88066	the $100
-2.88066	the 1962
-1.957001	the ``
-2.784306	the act
-2.343974	the action
-2.88066	the adamant
-2.839044	the administration
-2.839044	the airport
-2.88066	the appointment
-1.976121	the atlanta
-2.356856	the audience
-2.88066	the awarding
-2.88066	the bellwood
-2.88066	the best
-2.839044	the blue
-2.88066	the body's
-2.839044	the bond
-2.636735	the campaign
-1.740705	the city
-2.88066	the concessionaires
-2.88066	the constitution
-2.839044	the coolest
-2.88066	the cost
-2.839044	the counties
-2.194759	the county
-2.356856	the couple
-2.784306	the court
-2.88066	the court's
-2.88066	the crowd
-2.578293	the department
-2.88066	the effective
-1.495048	the election
-2.88066	the end
-2.88066	the establishment
-2.88066	the event
-2.839044	the exception
-2.88066	the featured
-2.704282	the first
-2.88066	the former
-1.495048	the fulton
-2.839044	the future
-2.839044	the general
-2.325706	the georgia
-2.325706	the grand
-2.88066	the gubernatorial
-2.88066	the hard-fought
-2.636735	the hartsfield
-2.26851	the highway
-1.770178	the house
-2.784306	the increase
-2.88066	the issuance
-2.784306	the jail
-2.356856	the jurors
-1.123812	the jury
-2.88066	the largest
-2.784306	the law
-2.704282	the legislature
-2.88066	the major
-2.839044	the manner
-2.704282	the mayor
-1.981596	the mayor's
-2.839044	the miller
-1.954979	the new
-2.88066	the next
-2.343974	the number
-2.88066	the old
-2.839044	the ordinary
-2.88066	the outgoing
-2.839044	the party
-2.88066	the past
-1.976121	the petition
-2.88066	the plans
-1.981596	the polls
-2.88066	the praise
-2.88066	the prices
-2.88066	the pricing
-2.839044	the privilege
-2.88066	the purpose
-2.704282	the race
-2.88066	the recommendations
-1.968195	the republicans
-1.942153	the resolution
-2.578293	the rural
-2.88066	the sales
-2.356856	the senate
-2.839044	the sept.
-2.88066	the september-october
-2.839044	the session
-2.839044	the sheriff
-2.88066	the signatures
-2.88066	the size
-1.513491	the state
-2.88066	the traditional
-2.88066	the validity
-2.704282	the voters
-2.88066	the warning
-2.784306	the welfare
-2.88066	the widespread
-1.072922	them ''
-1.015761	them the
-1.144267	then gov.
-1.015761	then the
-1.678512	there ``
-1.865333	there also
-1.829954	there should
-1.1201	there to
-0.8321844	there was
-1.877587	there wasn't
-1.872584	there were
-1.797242	there would
-1.620644	these actions
-1.620644	these available
-0.9757163	these funds
-1.61757	these laws
-1.61757	these two
-1.315904	they have
-1.324136	they realize
-1.311812	they work
-1.744575	this city
-1.723052	this county
-1.779002	this increase
-1.682965	this is
-1.786048	this money
-1.790908	this problem
-1.786048	this program
-1.664228	this was
-1.682965	this will
-0.7804745	threats of
-0.8505207	three years
-1.149794	through 87-31
-1.015761	through the
-0.8499604	thursday despite
-0.9956353	time .
-1.059048	time a
-0.8491381	title law
-2.51453	to $4
-1.702337	to ``
-2.51453	to achieve
-2.51453	to allow
-2.461632	to anonymous
-2.51453	to approve
-2.492333	to back
-2.125955	to be
-2.51453	to become
-2.461632	to both
-2.51453	to carry
-2.331354	to city
-2.51453	to death
-2.51453	to determine
-2.51453	to distribute
-2.51453	to do
-2.461632	to education
-1.928266	to enter
-2.51453	to face
-2.413731	to first
-2.413731	to have
-2.175428	to his
-2.51453	to insure
-2.51453	to investigate
-1.536456	to issue
-1.538858	to make
-2.51453	to obtain
-2.492333	to offer
-2.51453	to pass
-1.913921	to place
-2.51453	to protect
-2.51453	to remedy
-2.461632	to republicans
-1.928266	to rescind
-2.331354	to rural
-2.51453	to see
-2.51453	to set
-2.492333	to take
-2.492333	to teacher
-2.492333	to test
-1.157086	to the
-2.413731	to vote
-2.51453	to wait
-2.370592	to work
-0.8366862	together as
-0.7780845	told the
-0.84634	tom williams
-0.7651693	too ,
-1.059048	took a
-1.147045	took place
-0.8505207	top official
-0.7651693	topics ,
-0.8491381	tossed into
-0.8499604	toward adjournment
-0.8366862	tower will
-0.8505207	traditional visit
-0.8505207	traveled highways
-0.4921374	trouble ''
-1.147045	tuesday night
-1.030426	tuesday to
-1.324136	two alternative
-1.324136	two offices
-1.324136	two previous
-0.8477368	unanimous vote
-1.324136	under fire
-1.136575	under the
-1.288037	under which
-0.8505207	undue costs
-0.8499604	unit system
-0.8505207	unmeritorious criticisms
-1.097079	up for
-1.141506	up its
-0.7663276	upon .
-0.8505207	urban areas
-0.4971147	urged that
-0.7804745	validity of
-1.410115	vandiver has
-1.395056	vandiver is
-1.447333	vandiver likely
-1.447333	vandiver opened
-0.8505207	veiled threats
-0.8505207	very near
-1.149794	veteran agriculture
-1.149794	veteran jackson
-0.7663276	violence .
-0.7865078	visit to
-1.237368	vote of
-0.8006462	vote on
-1.253109	vote to
-1.144267	voted no
-1.148679	voted through
-1.181234	voters .
-1.290353	voters and
-1.286493	voters in
-1.447333	voters last
-0.803861	votes in
-1.149794	voting itself
-1.149794	voting precincts
-0.8505207	w. dorsey
-0.8477368	wait one
-0.7865078	wanted to
-1.144267	wards from
-1.149794	wards protected
-0.823257	warned that
-0.7651693	warning ,
-1.604894	was a
-2.054147	was also
-2.067522	was asked
-2.076861	was conducted
-2.076861	was just
-2.076861	was learned
-2.054147	was listed
-2.076861	was marked
-2.076861	was married
-2.032208	was no
-2.011324	was not
-2.076861	was picking
-2.032208	was received
-2.076861	was research
-2.076861	was subjected
-1.468703	was the
-2.076861	was warned
-2.076861	was won
-0.8491381	washington who
-0.8025982	wasn't a
-1.148679	we didn't
-1.149794	we feel
-0.7663276	wednesday .
-0.8505207	weekend duty
-1.425714	welfare department
-1.447333	welfare department's
-1.445123	welfare departments
-1.447333	welfare services
-0.8499604	well operated
-0.8505207	went real
-1.144267	were no
-1.141506	were not
-0.8505207	what adjustments
-0.2712451	when the
-0.8449477	where some
-1.288037	whether it
-1.324136	whether notice
-1.136575	whether the
-1.930855	which barber
-1.930855	which had
-1.848015	which has
-1.946077	which inure
-1.823577	which it
-1.915904	which new
-1.946077	which newly
-1.946077	which receives
-1.93985	which says
-0.8425018	which the
-1.789318	which was
-0.8505207	while emphasizing
-1.619961	who attended
-1.619961	who became
-1.619961	who defeated
-1.565673	who has
-1.544286	who is
-1.565673	who would
-0.8499604	widespread interest
-0.9936731	wife ,
-1.097079	wife for
-0.8499604	wife's age
-1.972035	will ask
-0.7264996	will be
-1.978262	will begin
-1.978262	will continue
-1.978262	will eliminate
-1.972035	will follow
-1.978262	will go
-1.978262	will mention
-1.972035	will offer
-1.972035	will permit
-1.978262	will wind
-1.148679	william b.
-1.149794	william berry
-1.245317	williams ,
-1.540657	williams got
-1.524536	williams hartsfield
-0.8881639	williams said
-0.8499604	wind up
-0.9270158	with a
-1.593513	with city
-1.618466	with exception
-0.8987973	with the
-0.8407973	won by
-0.7804745	word of
-1.230208	work .
-1.422336	work for
-1.502916	work on
-1.542508	work toward
-1.515752	work with
-0.8491381	worked out
-0.2716588	worth of
-0.7491947	would be
-1.793856	would force
-1.153628	would have
-1.789896	would like
-1.765025	would not
-1.793856	would seek
-0.9956353	year .
-1.122659	year as
-0.7663276	years .
-0.8505207	yet about

\end\
