
\data\
ngram 1=813
ngram 2=1879
ngram 3=62

\1-grams:
-3.177074	$10	-0.05614673
-3.177074	$100	-0.05614672
-3.177074	$3	-0.05614672
-3.177074	$30	-0.05614672
-3.177074	$4	-0.05614672
-3.177074	$50	-0.05614672
-1.77931	''	-0.385551
-2.924988	(	-0.05614673
-2.924988	)	-0.1115933
-1.439931	,	-0.1905002
-2.764286	--	-0.05614672
-1.446343	.	-1.714295
-2.924988	1	-0.05614673
-3.177074	1,119	-0.05614673
-3.177074	13	-0.05614673
-3.177074	13th	-0.05614673
-3.177074	18	-0.05614673
-3.177074	1913	-0.05614673
-3.177074	1923	-0.05614673
-3.177074	1937	-0.05614673
-3.177074	1958	-0.05614673
-3.177074	1961	-0.05614673
-3.177074	1962	-0.05614673
-2.924988	2	-0.05614673
-3.177074	29-5	-0.05614673
-3.177074	402	-0.05614673
-3.177074	637	-0.05614673
-3.177074	71	-0.05614673
-3.177074	74	-0.05614673
-3.177074	8	-0.05614672
-3.177074	87-31	-0.05614673
-3.056977	:	-0.05614673
-2.263913	</s>
-99	<s>	-0.2892942
-1.94691	``	-0.09548353
-1.702996	a	-0.08409953
-3.177074	abandoned	-0.05614673
-3.177074	about	-0.05614672
-3.177074	accepted	-0.05614673
-3.177074	according	-0.05614672
-3.177074	achieve	-0.05614673
-2.924988	act	-0.05614673
-3.056977	action	-0.05614673
-3.177074	actions	-0.05614673
-3.177074	adamant	-0.05614673
-2.924988	added	-0.3589072
-3.056977	additional	-0.05614673
-3.056977	adjournment	-0.05614673
-3.177074	adjustments	-0.05614673
-3.056977	administration	-0.05614673
-3.177074	administrators	-0.05614673
-2.764286	after	-0.09705401
-3.177074	afternoon	-0.05614673
-3.177074	against	-0.05614672
-3.056977	age	-0.142219
-3.177074	agreed	-0.05614673
-3.177074	agriculture	-0.05614673
-3.177074	aid	-0.05614672
-3.056977	airport	-0.05614672
-3.177074	aj	-0.05614673
-3.177074	ala.	-0.05614673
-3.177074	all	-0.05614672
-3.177074	allen	-0.05614673
-3.177074	allotted	-0.05614672
-3.177074	allow	-0.05614673
-3.177074	allowances	-0.05614673
-3.177074	allowed	-0.05614672
-3.177074	alpharetta	-0.05614673
-2.924988	also	-0.05614673
-3.177074	alternative	-0.05614673
-3.177074	ambiguous	-0.05614673
-3.177074	amendment	-0.05614672
-3.177074	amicable	-0.05614673
-3.177074	among	-0.05614673
-2.647252	an	-0.08298574
-1.726974	and	-0.07688907
-3.177074	announced	-0.05614673
-2.924988	anonymous	-0.05614672
-3.177074	any	-0.05614673
-3.056977	apparently	-0.05614673
-3.177074	appointed	-0.05614673
-3.177074	appointment	-0.05614672
-3.177074	appraisers	-0.05614673
-3.177074	approval	-0.05614672
-3.177074	approve	-0.05614673
-3.056977	approved	-0.05614673
-2.924988	are	-0.05614672
-3.177074	areas	-0.05614672
-3.177074	armed	-0.05614673
-2.223421	as	-0.1096176
-3.177074	aside	-0.05614672
-3.056977	ask	-0.05614672
-3.056977	asked	-0.05614673
-3.177074	asking	-0.05614672
-3.177074	assistance	-0.05614673
-3.177074	assistant	-0.05614673
-3.177074	association	-0.05614673
-2.414593	at	-0.3577528
-3.056977	atlanta	-0.05614673
-3.056977	atlanta's	-0.05614673
-3.177074	attended	-0.05614673
-3.056977	attorney	-0.05614673
-3.177074	attorneys	-0.05614673
-3.177074	audience	-0.05614673
-3.177074	aug.	-0.05614673
-3.177074	austin	-0.05614673
-3.177074	authorities	-0.05614673
-3.177074	authority	-0.05614673
-3.177074	automobile	-0.05614673
-3.177074	available	-0.05614673
-3.177074	awarding	-0.05614672
-3.056977	b.	-0.05614673
-3.056977	back	-0.05614672
-3.177074	ballot	-0.05614673
-3.177074	bankers	-0.05614673
-3.177074	bar	-0.05614673
-2.924988	barber	-0.05614672
-3.177074	battle	-0.05614672
-2.186385	be	-0.06402572
-3.177074	became	-0.05614673
-3.177074	become	-0.05614673
-2.924988	been	-0.05614673
-3.056977	before	-0.05614673
-3.177074	begin	-0.05614673
-2.647252	being	-0.08855849
-3.177074	believes	-0.05614673
-3.177074	bellwood	-0.05614673
-3.177074	berry	-0.05614673
-3.177074	best	-0.05614673
-3.177074	birth	-0.05614673
-3.177074	bit	-0.05614672
-3.056977	blue	-0.142219
-3.056977	board	-0.05614673
-3.177074	body's	-0.05614673
-3.056977	bond	-0.1115933
-2.647252	bonds	-0.08298575
-2.924988	both	-0.05614672
-3.177074	bowden	-0.05614673
-3.177074	brief	-0.05614673
-3.177074	brought	-0.05614673
-3.177074	burden	-0.05614673
-3.056977	bush	-0.1115933
-3.056977	but	-0.05614673
-2.358355	by	-0.05614673
-3.177074	byrd	-0.05614673
-3.177074	byrd's	-0.05614672
-3.056977	caldwell	-0.05614673
-3.177074	caldwell's	-0.05614673
-3.177074	callan	-0.05614673
-2.924988	calls	-0.05614672
-3.177074	calmest	-0.05614673
-2.647252	campaign	-0.05614672
-3.177074	can	-0.05614673
-3.177074	candidate	-0.05614673
-3.056977	candidates	-0.05614672
-3.177074	career	-0.05614673
-3.177074	carey	-0.05614672
-3.177074	carry	-0.05614673
-3.177074	cent	-0.05614672
-3.177074	certain	-0.05614673
-2.924988	chairman	-0.05614672
-3.177074	chambers	-0.05614673
-3.056977	charge	-0.05614673
-3.056977	charged	-0.05614673
-3.177074	cheshire	-0.05614672
-3.177074	child	-0.05614673
-3.177074	church	-0.05614673
-3.056977	citizens	-0.05614673
-2.555155	city	-0.05614672
-3.177074	clerical	-0.05614673
-3.056977	colquitt	-0.05614673
-3.177074	combined	-0.05614672
-3.056977	commented	-0.142219
-3.177074	commerce	-0.05614673
-3.177074	commissioner's	-0.05614673
-2.924988	committee	-0.09705402
-3.177074	compensation	-0.05614673
-3.177074	concessionaires	-0.05614673
-3.177074	conducted	-0.05614673
-3.177074	congress	-0.05614673
-3.177074	congressional	-0.05614673
-3.177074	congressmen	-0.05614673
-3.177074	considering	-0.05614672
-3.177074	consistently	-0.05614673
-3.177074	constitution	-0.05614673
-3.177074	constitutional	-0.05614673
-3.056977	construction	-0.05614673
-3.177074	consulted	-0.05614673
-3.177074	continue	-0.05614672
-3.177074	contracts	-0.05614673
-3.056977	controversy	-0.142219
-3.056977	coolest	-0.05614673
-3.177074	coordinator	-0.05614673
-3.177074	cost	-0.05614672
-3.177074	costs	-0.05614673
-3.177074	council	-0.05614672
-3.056977	counties	-0.05614673
-2.414593	county	-0.06668414
-3.177074	couple	-0.05614672
-3.177074	courses	-0.05614673
-2.924988	court	-0.05614673
-3.177074	court's	-0.05614673
-3.177074	courts	-0.05614673
-3.177074	criticisms	-0.05614673
-3.177074	crowd	-0.05614673
-3.177074	cruelty	-0.05614673
-3.177074	d.	-0.05614673
-3.177074	daniel's	-0.05614673
-3.177074	date	-0.05614673
-3.177074	daughter	-0.05614673
-2.924988	davis	-0.05614673
-3.177074	day	-0.05614673
-3.177074	days	-0.05614673
-3.177074	death	-0.05614673
-3.177074	defeated	-0.05614673
-3.177074	delegation	-0.05614672
-3.177074	democratic	-0.05614673
-2.555155	department	-0.0761189
-3.177074	department's	-0.05614673
-3.056977	departments	-0.05614672
-3.056977	deputies	-0.05614673
-3.177074	deserves	-0.05614672
-3.056977	despite	-0.142219
-3.177074	details	-0.05614673
-3.177074	determine	-0.05614673
-3.056977	did	-0.05614673
-3.056977	didn't	-0.05614673
-3.177074	directed	-0.05614672
-3.177074	director	-0.05614673
-3.177074	disable	-0.05614672
-3.177074	disproportionate	-0.05614673
-3.177074	dispute	-0.05614673
-3.177074	dissents	-0.05614673
-3.177074	distribute	-0.05614673
-3.177074	distribution	-0.05614672
-3.177074	divorce	-0.05614673
-3.177074	do	-0.05614672
-3.177074	doctor	-0.05614673
-3.177074	does	-0.05614673
-3.177074	done	-0.05614672
-3.177074	dorsey	-0.05614673
-3.177074	drop	-0.05614672
-3.177074	during	-0.05614672
-3.177074	durwood	-0.05614673
-3.177074	duty	-0.05614672
-3.177074	e.	-0.05614673
-3.177074	each	-0.05614672
-3.177074	earlier	-0.05614672
-2.924988	education	-0.1115933
-3.177074	effect	-0.05614672
-3.177074	effected	-0.05614673
-3.177074	effective	-0.05614673
-3.177074	efficiency	-0.05614673
-3.177074	elaborate	-0.05614673
-2.924988	elected	-0.05614672
-2.358355	election	-0.09705402
-3.177074	eliminate	-0.05614673
-3.177074	emphasizing	-0.05614673
-3.177074	employed	-0.05614673
-3.177074	employes	-0.05614673
-3.056977	enabling	-0.05614673
-3.177074	encouragement	-0.05614672
-3.177074	end	-0.05614672
-3.177074	endorse	-0.05614673
-3.177074	enter	-0.05614673
-3.177074	entering	-0.05614673
-3.177074	enthusiasm	-0.05614673
-3.177074	enthusiastic	-0.05614673
-3.177074	equitable	-0.05614673
-3.177074	establishment	-0.05614672
-3.177074	event	-0.05614673
-3.177074	ever	-0.05614673
-3.177074	every	-0.05614673
-3.177074	everything	-0.05614673
-3.177074	evidence	-0.05614673
-3.056977	exception	-0.142219
-3.056977	executive	-0.142219
-3.056977	expected	-0.05614673
-3.177074	expended	-0.05614673
-3.177074	expense	-0.05614673
-3.177074	experienced	-0.05614673
-3.177074	expires	-0.05614673
-3.177074	extern	-0.05614673
-3.177074	face	-0.05614673
-3.177074	fact	-0.05614673
-3.177074	failure	-0.05614672
-3.177074	fair	-0.05614673
-3.177074	farms	-0.05614673
-3.177074	feared	-0.05614673
-3.177074	featured	-0.05614673
-2.764286	federal	-0.09705401
-3.177074	feel	-0.05614673
-3.177074	fees	-0.05614673
-3.056977	felix	-0.05614673
-3.177074	filed	-0.05614673
-3.177074	find	-0.05614673
-3.177074	fire	-0.05614673
-2.764286	first	-0.05614673
-3.177074	fit	-0.05614672
-3.177074	five	-0.05614673
-3.056977	follow	-0.05614673
-1.94691	for	-0.1024552
-3.177074	force	-0.05614672
-3.177074	formally	-0.05614673
-3.177074	former	-0.05614672
-3.177074	foster	-0.05614673
-3.177074	found	-0.05614672
-3.056977	four	-0.05614673
-2.764286	friday	-0.05614672
-3.177074	friendly	-0.05614673
-2.764286	from	-0.05614673
-3.177074	fully	-0.05614673
-2.358355	fulton	-0.192086
-3.177074	fund	-0.05614673
-2.555155	funds	-0.07611889
-3.177074	further	-0.05614673
-3.056977	future	-0.05614673
-3.177074	gainesville	-0.05614673
-3.177074	garland	-0.05614673
-3.056977	general	-0.05614673
-3.177074	generally	-0.05614673
-3.177074	george	-0.05614673
-2.924988	georgia	-0.05614672
-3.177074	georgia's	-0.05614673
-3.177074	getting	-0.05614673
-3.177074	give	-0.05614673
-3.177074	given	-0.05614673
-3.177074	go	-0.05614672
-3.177074	goes	-0.05614673
-3.177074	good	-0.05614672
-3.177074	gop	-0.05614673
-3.056977	got	-0.05614673
-2.764286	gov.	-0.05614673
-3.177074	governments	-0.05614673
-3.177074	governor	-0.05614673
-3.177074	governor's	-0.05614673
-3.177074	grady	-0.05614673
-2.924988	grand	-0.1115933
-3.177074	granted	-0.05614673
-3.177074	greater	-0.05614673
-3.056977	griffin	-0.142219
-3.177074	guardians	-0.05614673
-3.177074	gubernatorial	-0.05614672
-3.177074	gun	-0.05614673
-2.924988	had	-0.1115933
-3.177074	handful	-0.05614672
-3.177074	handling	-0.05614672
-3.177074	hard-fought	-0.05614673
-3.177074	harry	-0.05614673
-2.647252	hartsfield	-0.05614672
-2.358355	has	-0.2027853
-2.764286	have	-0.097054
-2.647252	he	-0.05614673
-3.177074	head	-0.05614673
-3.177074	health	-0.05614673
-3.177074	heavily	-0.05614673
-3.056977	held	-0.05614673
-3.177074	henry	-0.05614673
-2.647252	highway	-0.2178786
-3.177074	highways	-0.05614673
-3.177074	him	-0.05614672
-3.056977	himself	-0.05614673
-2.263913	his	-0.05614672
-3.177074	hold	-0.05614673
-3.056977	home	-0.05614673
-3.177074	homes	-0.05614673
-3.177074	hopper	-0.05614673
-3.177074	hospital	-0.05614673
-3.177074	hot	-0.05614673
-3.056977	house	-0.05614673
-3.056977	however	-0.1115933
-3.177074	hurdle	-0.05614672
-3.056977	i	-0.05614673
-3.056977	implementation	-0.142219
-3.177074	improving	-0.05614673
-1.714819	in	-0.267216
-3.177074	inadequate	-0.05614673
-3.177074	incorporated	-0.05614673
-2.924988	increase	-0.1115933
-3.177074	increased	-0.05614673
-3.177074	influences	-0.05614673
-3.177074	insure	-0.05614673
-3.177074	intends	-0.05614672
-3.056977	interest	-0.05614673
-3.177074	interim	-0.05614673
-3.177074	interlude	-0.05614673
-3.177074	intern	-0.05614673
-2.924988	into	-0.05614673
-3.177074	inure	-0.05614672
-3.177074	investigate	-0.05614673
-3.177074	investigation	-0.05614672
-2.924988	irregularities	-0.05614673
-2.223421	is	-0.1295271
-3.177074	issuance	-0.05614672
-3.056977	issue	-0.05614673
-3.177074	issued	-0.05614673
-2.263913	it	-0.06491007
-3.177074	item	-0.05614673
-3.177074	items	-0.05614672
-2.647252	its	-0.05614672
-3.177074	itself	-0.05614673
-3.056977	ivan	-0.142219
-3.177074	j.	-0.05614673
-3.177074	jackson	-0.05614672
-2.924988	jail	-0.05614673
-3.177074	james	-0.05614673
-3.056977	jan.	-0.142219
-3.177074	john	-0.05614673
-3.056977	jr.	-0.1115933
-3.177074	judge	-0.05614673
-3.177074	juries	-0.05614673
-3.177074	jurors	-0.05614673
-2.764286	jury	-0.07058023
-3.177074	just	-0.05614673
-3.177074	keeping	-0.05614672
-3.177074	l.	-0.05614673
-3.177074	lacking	-0.05614672
-3.177074	largest	-0.05614673
-3.177074	last	-0.05614673
-2.924988	law	-0.05614672
-3.056977	laws	-0.05614673
-3.177074	leading	-0.05614672
-3.177074	learned	-0.05614672
-3.177074	ledford	-0.05614672
-3.177074	legislation	-0.05614673
-3.056977	legislator	-0.05614673
-2.924988	legislators	-0.05614673
-2.764286	legislature	-0.05614673
-3.177074	less	-0.05614673
-3.177074	let	-0.05614673
-3.056977	like	-0.05614673
-3.177074	likely	-0.05614673
-3.177074	liquor	-0.05614673
-2.924988	listed	-0.05614673
-3.177074	lived	-0.05614673
-3.177074	local	-0.05614673
-3.177074	long	-0.05614673
-3.177074	lt.	-0.05614673
-3.177074	m.	-0.05614673
-3.177074	mac	-0.05614673
-3.056977	made	-0.05614673
-3.177074	major	-0.05614673
-3.177074	make	-0.05614672
-3.177074	making	-0.05614673
-3.177074	man	-0.05614673
-3.177074	management	-0.05614673
-3.056977	manner	-0.05614673
-3.056977	many	-0.05614673
-3.177074	march	-0.05614673
-3.177074	marked	-0.05614673
-3.177074	married	-0.05614673
-3.177074	marvin	-0.05614673
-3.177074	matters	-0.05614673
-3.177074	may	-0.05614673
-2.764286	mayor	-0.05614673
-3.177074	mayor's	-0.05614672
-3.177074	mayor-nominate	-0.05614673
-3.177074	meanwhile	-0.05614673
-3.177074	medical	-0.05614673
-3.056977	meeting	-0.05614673
-3.177074	members	-0.05614672
-3.177074	mental	-0.05614673
-3.177074	mention	-0.05614672
-3.177074	merger	-0.05614673
-3.177074	midnight	-0.05614673
-3.177074	might	-0.05614673
-3.056977	miller	-0.142219
-2.647252	million	-0.2117895
-3.177074	modernizing	-0.05614673
-2.647252	monday	-0.05614672
-3.056977	money	-0.05614673
-2.924988	more	-0.1115933
-3.177074	most	-0.05614673
-3.177074	mrs.	-0.05614673
-3.177074	multi-million-dollar	-0.05614673
-2.924988	must	-0.05614672
-3.177074	names	-0.05614672
-3.177074	near	-0.05614672
-3.177074	nevertheless	-0.05614673
-2.764286	new	-0.08298575
-3.177074	newly	-0.05614673
-3.177074	next	-0.05614673
-2.924988	night	-0.05614673
-2.764286	no	-0.05614673
-3.056977	none	-0.142219
-2.647252	not	-0.05614673
-3.177074	notice	-0.05614673
-3.177074	november	-0.05614673
-3.056977	number	-0.142219
-3.177074	obtain	-0.05614672
-3.177074	occupation	-0.05614673
-1.531726	of	-0.1838119
-3.177074	off	-0.05614673
-3.056977	offer	-0.05614673
-3.177074	offered	-0.05614672
-3.056977	office	-0.05614673
-3.177074	offices	-0.05614673
-3.177074	official	-0.05614673
-3.177074	officials	-0.05614672
-3.177074	often	-0.05614673
-3.177074	old	-0.05614673
-2.414593	on	-0.181431
-2.764286	one	-0.097054
-3.177074	ones	-0.05614673
-3.177074	only	-0.05614673
-3.177074	opelika	-0.05614673
-3.177074	opened	-0.05614672
-3.056977	operated	-0.05614673
-3.177074	operating	-0.05614673
-3.177074	operation	-0.05614672
-3.177074	opposed	-0.05614672
-3.177074	opposes	-0.05614672
-2.764286	or	-0.05614673
-3.177074	order	-0.05614673
-3.177074	orderly	-0.05614673
-3.056977	ordinary	-0.05614673
-3.177074	ordinary's	-0.05614673
-3.056977	other	-0.05614673
-3.056977	our	-0.05614673
-2.924988	out	-0.05614673
-3.177074	outgoing	-0.05614673
-3.177074	outmoded	-0.05614673
-3.177074	outright	-0.05614673
-3.177074	over-all	-0.05614673
-3.177074	p.	-0.05614673
-3.177074	paid	-0.05614673
-3.056977	party	-0.05614673
-3.177074	pass	-0.05614673
-3.056977	passed	-0.05614673
-3.177074	past	-0.05614673
-3.056977	pay	-0.142219
-3.177074	pearl	-0.05614672
-2.764286	pelham	-0.0885585
-3.177074	pension	-0.05614673
-3.056977	per	-0.05614673
-3.177074	periodic	-0.05614673
-3.056977	permit	-0.05614672
-3.056977	personnel	-0.05614673
-3.056977	petition	-0.05614674
-3.056977	petitions	-0.05614673
-3.177074	phone	-0.05614673
-3.177074	picking	-0.05614673
-3.177074	pistol	-0.05614673
-2.924988	place	-0.05614672
-3.056977	plan	-0.05614673
-3.177074	plans	-0.05614672
-3.177074	platform	-0.05614673
-3.177074	pointed	-0.05614673
-3.177074	police	-0.05614673
-3.056977	policeman	-0.05614673
-3.177074	policies	-0.05614673
-3.056977	political	-0.05614673
-3.177074	polls	-0.05614672
-3.177074	populous	-0.05614673
-3.056977	portion	-0.142219
-3.177074	possible	-0.05614673
-3.177074	post	-0.05614672
-2.924988	practices	-0.05614673
-3.177074	praise	-0.05614673
-3.177074	praised	-0.05614672
-3.177074	precincts	-0.05614672
-3.177074	present	-0.05614673
-3.177074	presentments	-0.05614673
-3.177074	previous	-0.05614673
-3.177074	price	-0.05614673
-3.177074	prices	-0.05614673
-3.177074	pricing	-0.05614673
-2.764286	primary	-0.05614673
-3.177074	principal	-0.05614673
-3.056977	priority	-0.05614673
-3.177074	prison	-0.05614673
-3.056977	privilege	-0.142219
-3.177074	problem	-0.05614673
-3.177074	procedures	-0.05614672
-3.177074	produced	-0.05614673
-3.056977	program	-0.05614673
-3.177074	promise	-0.05614673
-3.177074	promised	-0.05614672
-3.056977	property	-0.05614673
-3.177074	proportionate	-0.05614673
-3.056977	proposed	-0.05614673
-3.177074	protect	-0.05614672
-3.177074	protected	-0.05614672
-3.177074	protests	-0.05614672
-3.056977	provide	-0.05614673
-3.177074	provided	-0.05614673
-3.056977	public	-0.05614673
-3.056977	purchasing	-0.05614673
-3.177074	purpose	-0.05614672
-3.177074	put	-0.05614672
-3.177074	pye	-0.05614672
-3.177074	quickie	-0.05614673
-3.177074	quiet	-0.05614673
-2.764286	race	-0.2613042
-3.177074	raises	-0.05614673
-3.177074	rally	-0.05614672
-3.177074	rd.	-0.05614673
-3.177074	re-set	-0.05614672
-3.177074	read	-0.05614672
-3.177074	ready	-0.05614672
-3.177074	real	-0.05614673
-3.177074	realize	-0.05614673
-3.177074	reasonable	-0.05614673
-3.177074	receive	-0.05614673
-2.764286	received	-0.05614673
-3.177074	receives	-0.05614673
-3.177074	recent	-0.05614673
-3.177074	recommendations	-0.05614673
-2.924988	recommended	-0.09705401
-3.177074	reconsideration	-0.05614672
-3.177074	reconstruction	-0.05614672
-3.177074	reduce	-0.05614672
-3.177074	reelection	-0.05614673
-3.177074	regarding	-0.05614673
-3.177074	registered	-0.05614673
-3.177074	registration	-0.05614673
-3.177074	rejected	-0.05614673
-3.177074	relations	-0.05614673
-3.177074	relative	-0.05614673
-3.177074	remedy	-0.05614673
-3.056977	rep.	-0.05614673
-3.177074	repair	-0.05614672
-3.177074	repealed	-0.05614673
-3.177074	reportedly	-0.05614673
-3.056977	reports	-0.05614673
-2.924988	republicans	-0.05614673
-3.177074	requesting	-0.05614673
-3.177074	rescind	-0.05614672
-3.177074	research	-0.05614672
-3.177074	resignation	-0.05614673
-3.056977	resigned	-0.05614673
-2.647252	resolution	-0.05614673
-3.177074	responses	-0.05614673
-3.177074	result	-0.05614672
-3.177074	revised	-0.05614672
-3.177074	revolving	-0.05614673
-3.177074	ridge	-0.05614673
-3.177074	road	-0.05614673
-3.177074	roads	-0.05614673
-3.177074	rob	-0.05614673
-3.177074	robert	-0.05614673
-3.177074	run	-0.05614673
-2.555155	rural	-0.2909707
-2.186385	said	-0.1325169
-3.177074	sales	-0.05614673
-3.177074	sam	-0.05614673
-3.177074	saturday's	-0.05614673
-3.177074	savannah	-0.05614672
-3.177074	saw	-0.05614673
-3.056977	says	-0.142219
-3.177074	scheduled	-0.05614672
-3.177074	schley	-0.05614672
-2.924988	school	-0.09705401
-3.177074	see	-0.05614672
-3.177074	seek	-0.05614672
-3.177074	seemed	-0.05614673
-3.177074	seen	-0.05614673
-3.177074	sen.	-0.05614673
-3.177074	senate	-0.05614673
-3.056977	sept.	-0.05614673
-3.177074	september-october	-0.05614673
-3.177074	servants	-0.05614673
-3.177074	serve	-0.05614672
-3.177074	services	-0.05614672
-3.056977	session	-0.05614673
-3.177074	sessions	-0.05614673
-3.177074	set	-0.05614673
-3.177074	settlement	-0.05614673
-3.056977	sheriff	-0.05614673
-3.177074	shortly	-0.05614673
-3.177074	shot	-0.05614673
-2.555155	should	-0.2909707
-3.177074	sign	-0.05614673
-3.177074	signatures	-0.05614672
-3.177074	similar	-0.05614672
-3.177074	since	-0.05614673
-3.177074	size	-0.05614672
-3.177074	smell	-0.05614673
-3.177074	smooth	-0.05614673
-3.177074	snodgrass	-0.05614673
-3.056977	so	-0.05614673
-2.555155	some	-0.08298574
-3.177074	something	-0.05614672
-3.177074	son	-0.05614673
-3.177074	soon	-0.05614673
-3.177074	sought	-0.05614673
-3.177074	source	-0.05614673
-3.177074	speaker	-0.05614673
-3.177074	specifically	-0.05614673
-3.177074	starts	-0.05614673
-2.647252	state	-0.07058023
-3.177074	steps	-0.05614672
-3.177074	stood	-0.05614673
-3.177074	strong	-0.05614673
-3.177074	studied	-0.05614673
-3.177074	study	-0.05614672
-3.177074	subjected	-0.05614672
-3.177074	succeeded	-0.05614673
-3.056977	such	-0.05614673
-3.056977	suit	-0.05614673
-3.056977	sunday	-0.142219
-3.177074	superintendent	-0.05614673
-3.177074	superior	-0.05614673
-3.177074	support	-0.05614673
-3.177074	surveillance	-0.05614672
-3.177074	swipe	-0.05614672
-3.056977	system	-0.05614673
-3.177074	tabb	-0.05614673
-3.056977	take	-0.05614673
-3.177074	taken	-0.05614673
-3.177074	takes	-0.05614673
-3.056977	tax	-0.05614673
-3.177074	taxpayers	-0.05614673
-3.056977	teacher	-0.05614673
-3.177074	technical	-0.05614673
-3.177074	telephone	-0.05614673
-2.924988	term	-0.05614673
-3.177074	term-end	-0.05614673
-3.056977	test	-0.05614673
-2.924988	texas	-0.05614672
-3.177074	than	-0.05614673
-3.177074	thanks	-0.05614672
-1.94691	that	-0.1180103
-1.516278	the	-0.1584195
-3.056977	them	-0.05614673
-3.056977	then	-0.05614673
-2.414593	there	-0.0885585
-2.764286	these	-0.08298574
-2.924988	they	-0.05614672
-2.479212	this	-0.05614672
-3.177074	threats	-0.05614672
-3.177074	three	-0.05614673
-3.056977	through	-0.05614673
-3.177074	thursday	-0.05614673
-3.056977	time	-0.05614673
-3.177074	title	-0.05614673
-1.572935	to	-0.1148718
-3.177074	together	-0.05614673
-3.177074	told	-0.05614672
-3.177074	tom	-0.05614672
-3.177074	too	-0.05614673
-3.056977	took	-0.05614673
-3.177074	top	-0.05614673
-3.177074	topics	-0.05614673
-3.177074	tossed	-0.05614673
-3.177074	toward	-0.05614673
-3.177074	tower	-0.05614673
-3.177074	traditional	-0.05614673
-3.177074	traveled	-0.05614673
-3.177074	trouble	-0.05614673
-3.056977	tuesday	-0.05614673
-3.056977	two	-0.05614672
-3.177074	unanimous	-0.05614673
-2.924988	under	-0.05614673
-3.177074	undue	-0.05614673
-3.177074	unit	-0.05614673
-3.177074	unmeritorious	-0.05614673
-3.056977	up	-0.05614673
-3.177074	upon	-0.05614673
-3.177074	urban	-0.05614673
-3.177074	urged	-0.05614673
-3.177074	validity	-0.05614672
-2.924988	vandiver	-0.05614673
-3.177074	veiled	-0.05614673
-3.177074	very	-0.05614673
-3.177074	veteran	-0.05614673
-3.177074	violence	-0.05614673
-3.177074	visit	-0.05614672
-2.764286	vote	-0.09705401
-3.056977	voted	-0.05614673
-2.764286	voters	-0.05614672
-3.177074	votes	-0.05614672
-3.056977	voting	-0.05614673
-3.177074	w.	-0.05614673
-3.177074	wait	-0.05614673
-3.177074	wanted	-0.05614672
-3.056977	wards	-0.05614673
-3.177074	warned	-0.05614673
-3.177074	warning	-0.05614673
-2.15226	was	-0.05614673
-3.177074	washington	-0.05614673
-3.177074	wasn't	-0.05614673
-3.056977	we	-0.05614673
-3.177074	wednesday	-0.05614673
-3.177074	weekend	-0.05614673
-2.924988	welfare	-0.05614673
-3.177074	well	-0.05614673
-3.177074	went	-0.05614673
-3.056977	were	-0.05614673
-3.177074	what	-0.05614673
-3.056977	when	-0.142219
-3.177074	where	-0.05614673
-2.924988	whether	-0.05614673
-2.263913	which	-0.1096176
-3.177074	while	-0.05614673
-2.924988	who	-0.05614673
-3.177074	widespread	-0.05614673
-3.056977	wife	-0.05614673
-3.177074	wife's	-0.05614673
-2.223421	will	-0.1096176
-3.056977	william	-0.05614673
-2.647252	williams	-0.08855849
-3.177074	wind	-0.05614673
-2.555155	with	-0.1115933
-3.177074	won	-0.05614673
-3.177074	word	-0.05614672
-2.647252	work	-0.05614672
-3.177074	worked	-0.05614673
-3.177074	worth	-0.05614672
-2.358355	would	-0.1570278
-3.056977	year	-0.05614673
-3.177074	years	-0.05614673
-3.177074	yet	-0.05614673

\2-grams:
-0.9134797	$10 per
-0.9091986	$100 million
-0.9091986	$3 million
-0.9091986	$30 million
-0.9091986	$4 million
-0.9091986	$50 million
-0.7920445	'' ,	-0.3059628
-0.3859466	'' .	-0.7862161
-2.368658	'' act
-1.939027	'' and
-2.204096	'' as
-2.073619	'' for
-1.930838	'' in
-1.798928	'' of
-2.269687	'' on
-2.39109	'' pension
-2.073619	'' that
-2.287758	'' this
-1.829947	'' to
-2.346977	'' vote
-1.382274	( 1
-1.382274	( 2
-1.172693	( the
-0.7203724	) </s>
-1.386125	) passed
-2.715302	, 1913
-1.551035	, ``
-1.473554	, a
-2.715302	, according
-2.715302	, ala.
-2.715302	, among
-1.239478	, and
-2.645178	, anonymous
-2.715302	, armed
-2.271427	, as
-2.645178	, both
-2.127213	, but
-2.685536	, caldwell
-2.715302	, calmest
-2.685536	, colquitt
-2.645178	, davis
-2.645178	, elected
-2.685536	, four
-2.715302	, george
-2.715302	, grady
-2.715302	, guardians
-2.715302	, hot
-2.127213	, however
-1.713741	, in
-1.982655	, it
-2.715302	, medical
-2.685536	, miller
-2.715302	, mrs.
-2.58387	, one
-2.58387	, or
-2.715302	, pearl
-2.58387	, pelham
-2.715302	, provided
-2.715302	, reportedly
-2.685536	, resigned
-1.954915	, said
-2.715302	, shot
-2.715302	, since
-2.715302	, something
-2.07841	, state
-2.715302	, stood
-2.645178	, texas
-2.056263	, that
-0.8965643	, the	-0.1450836
-2.027899	, there	-0.09949574
-2.715302	, too
-2.219025	, was
-1.613656	, which
-1.469272	, who
-2.271427	, will
-2.685536	, william
-2.482359	, with
-1.380205	-- a
-1.588937	-- after
-1.390065	-- and
-1.596892	-- committee
-1.604859	-- where
-0.008420174	. </s>
-1.503582	1 )
-1.209288	1 .
-1.45464	1 </s>
-1.243485	1 the
-0.9141427	1,119 votes
-0.9108495	13 primary
-0.9134797	13th year
-0.8147863	18 ,
-0.8161142	1913 .
-0.8161142	1923 .
-0.8161142	1937 .
-0.9075539	1958 with
-0.9134797	1961 session
-0.9141427	1962 governor's
-1.382274	2 )
-1.140655	2 ,
-1.344761	2 </s>
-0.8161142	29-5 .
-0.8161142	402 .
-0.9141427	637 e.
-0.8161142	71 .
-0.8609038	74 and
-0.8594319	8 in
-0.8161142	87-31 .
-1.209844	: (
-1.209844	: 1
-2.739144	<s> (
-2.189159	<s> --
-1.138606	<s> ``	-0.02272372
-1.431204	<s> a
-2.368173	<s> as
-2.779035	<s> ask
-2.808428	<s> attorneys
-2.808428	<s> austin
-2.739144	<s> barber
-2.779035	<s> before
-2.779035	<s> but
-2.808428	<s> caldwell's
-2.779035	<s> colquitt
-2.779035	<s> construction
-2.739144	<s> davis
-2.779035	<s> despite
-2.808428	<s> during
-2.808428	<s> five
-2.779035	<s> four
-2.46047	<s> fulton
-2.739144	<s> georgia
-2.678468	<s> gov.
-2.62524	<s> hartsfield
-2.171183	<s> he	-0.09949573
-2.808428	<s> henry
-2.076612	<s> his
-2.779035	<s> however
-2.779035	<s> i
-2.779035	<s> implementation
-1.953955	<s> in
-1.303913	<s> it	-0.03059861
-2.779035	<s> many
-2.678468	<s> mayor
-2.808428	<s> meanwhile
-2.808428	<s> merger
-2.808428	<s> nevertheless
-2.496178	<s> on
-2.219275	<s> ordinary
-2.189159	<s> pelham
-2.808428	<s> regarding
-2.779035	<s> rep.
-2.808428	<s> robert
-2.808428	<s> sam
-2.808428	<s> schley
-2.779035	<s> sheriff
-2.62524	<s> state
-0.5646042	<s> the	-0.07641467
-2.739144	<s> they
-2.207912	<s> vandiver
-2.779035	<s> wards
-2.219275	<s> when	-0.09949572
-2.808428	<s> while
-1.490376	`` a
-2.387134	`` abandoned
-1.296055	`` are
-2.369487	`` attorney
-2.269608	`` being
-2.387134	`` considering
-2.369487	`` coolest
-2.387134	`` deserves
-2.387134	`` endorse
-2.387134	`` everything
-2.387134	`` failure
-2.387134	`` give
-1.700194	`` has
-1.720236	`` in
-2.34478	`` irregularities
-2.077519	`` is
-2.305569	`` no
-2.387134	`` only
-2.369487	`` provide
-2.387134	`` quickie
-2.369487	`` take
-1.89836	`` that
-1.709596	`` there
-1.749386	`` these
-2.205548	`` this
-1.601635	`` to
-2.369487	`` we
-2.269608	`` work
-2.547255	a $10
-2.547255	a battle
-1.955224	a bit	-0.09949574
-2.382528	a campaign
-1.489708	a candidate	-0.04625005
-2.547255	a constitutional
-2.547255	a daughter
-2.547255	a disproportionate
-2.547255	a dispute
-2.547255	a doctor
-2.547255	a drop
-2.547255	a fair
-2.431095	a first
-2.547255	a friendly
-2.547255	a gun
-2.382528	a highway
-2.521312	a legislator
-2.547255	a long
-2.521312	a manner
-2.521312	a meeting
-2.431095	a new
-2.521312	a number
-2.521312	a permit
-2.547255	a pistol
-2.521312	a plan
-2.521312	a policeman
-2.521312	a portion
-2.431095	a primary
-2.521312	a privilege
-2.547255	a proportionate
-2.547255	a relative
-1.906779	a resolution
-2.547255	a result
-1.955224	a revolving	-0.09949575
-2.485786	a school
-2.547255	a similar
-2.547255	a son
-1.906779	a state
-2.547255	a study
-2.547255	a swipe
-2.521312	a system
-2.547255	a top
-2.547255	a unanimous
-1.955224	a veteran
-2.431095	a vote
-2.521312	a year
-0.9134797	abandoned property
-0.8296213	about the
-0.9125068	accepted practices
-0.8393326	according to
-0.9141427	achieve greater
-1.140655	act ,
-1.29796	act ``
-1.387118	act seemed
-1.143471	action .
-1.178782	action of
-1.35384	action would
-0.9075539	actions should
-0.9141427	adamant protests
-0.2461646	added that
-1.211776	additional deputies
-1.200077	additional rural
-1.035838	adjournment .
-1.203308	adjournment monday
-0.9075539	adjustments should
-1.12353	administration ''
-1.112865	administration and
-0.8609038	administrators and
-1.33568	after a
-0.8494592	after he
-1.499013	after mayor
-0.8147863	afternoon ,
-0.8296213	against the
-0.5473476	age as
-0.9141427	agreed upon
-0.9134797	agriculture teacher
-0.8393326	aid to
-1.033638	airport ,
-1.178106	airport be
-0.8161142	aj .
-0.8161142	ala. .
-0.8296213	all the
-0.9134797	allen jr.
-0.8393326	allotted to
-0.9125068	allow legislators
-0.8161142	allowances .
-0.8393326	allowed to
-0.9141427	alpharetta prison
-1.38515	also commented
-1.340292	also is
-1.382274	also recommended
-0.9141427	alternative courses
-0.8668418	ambiguous ''
-0.8393326	amendment to
-0.9134797	amicable property
-0.9134797	among them
-1.682734	an amicable
-1.682734	an assistant
-1.682734	an interim
-1.682734	an investigation
-1.028563	an orderly
-1.903138	and ``
-1.707033	and a
-2.445015	and administrators
-2.445015	and alpharetta
-2.308102	and an
-1.832755	and bush
-2.394959	and chairman
-2.445015	and compensation
-2.445015	and contracts
-2.394959	and elected
-2.173755	and election
-2.445015	and equitable
-2.445015	and expended
-2.42405	and follow
-2.173755	and fulton
-2.445015	and head
-2.119512	and his
-2.445015	and improving
-1.717009	and in
-2.308102	and its
-2.445015	and often
-2.445015	and operation
-2.394959	and place
-2.445015	and promised
-2.445015	and re-set
-2.445015	and reduce
-2.445015	and revised
-2.445015	and thanks
-1.169437	and the
-2.42405	and then
-2.20365	and there
-2.445015	and urban
-2.445015	and veiled
-2.42405	and we
-2.445015	and weekend
-2.42405	and wife
-2.308102	and williams
-0.882052	announced that
-1.382274	anonymous calls
-1.387118	anonymous midnight
-1.387118	anonymous telephone
-0.9125068	any irregularities
-1.213095	apparently intends
-1.211776	apparently made
-0.8609038	appointed and
-0.8323739	appointment of
-0.8147863	appraisers ,
-0.8323739	approval of
-0.857965	approve a
-1.213095	approved earlier
-1.181177	approved will
-1.604859	are getting
-1.604859	are outmoded
-1.604859	are paid
-1.573452	are some
-1.604859	are well
-0.8393326	areas to
-0.9075539	armed with
-2.006758	as 71
-2.006758	as 74
-1.742121	as ``
-0.8381044	as a
-1.867738	as his
-2.006758	as man
-1.492593	as of
-2.006758	as opelika
-1.955493	as state
-1.481569	as the
-1.989182	as they
-0.8296213	aside the
-1.209844	ask jail
-1.058475	ask the
-1.213095	asked him
-1.209844	asked whether
-0.8296213	asking the
-0.9134797	assistance program
-0.9125068	assistant more
-0.8609038	association and
-1.861167	at 637
-1.861167	at church
-0.2723288	at the	-0.04142175
-1.799571	at which
-1.410483	atlanta ''
-1.250538	atlanta ,
-1.390065	atlanta and
-1.604859	atlanta bar
-1.604859	atlanta police
-1.206564	atlanta's new
-1.213095	atlanta's recent
-0.8161142	attended .
-1.12353	attorney ''
-1.035838	attorney .
-0.882052	attorneys for
-1.035838	audience .
-1.175056	audience was
-0.9125068	aug. 2
-0.8147863	austin ,
-0.8161142	authorities .
-1.10763	authority a
-1.203308	authority bonds
-0.9141427	automobile title
-0.9075539	available funds
-0.8323739	awarding of
-1.213095	b. d.
-1.203308	b. hartsfield
-1.206564	back federal
-1.075054	back to
-0.8147863	ballot ,
-0.8161142	bankers .
-0.9141427	bar association
-1.140655	barber ,
-1.178782	barber of
-1.387118	barber tossed
-0.8594319	battle in
-2.177982	be allowed
-2.177982	be combined
-2.177982	be directed
-2.177982	be effected
-1.545161	be employed
-2.177982	be formally
-2.177982	be given
-2.166181	be held
-2.149394	be irregularities
-2.177982	be issued
-2.166181	be made
-2.166181	be operated
-2.177982	be periodic
-2.122134	be received
-2.177982	be repealed
-2.177982	be sought
-2.177982	be succeeded	-0.09949574
-2.177982	be taken
-1.490153	be the
-0.857965	became a
-0.857965	become a
-1.746919	been agreed
-1.714339	been an
-1.742427	been charged
-1.746919	been consulted
-1.742427	been expected
-1.724989	been mayor
-1.735907	been under
-1.211776	before adjournment
-1.213095	before making
-0.8609038	begin and
-0.9398999	being at
-1.605595	being done
-1.605595	being offered
-1.605595	being ready
-0.882052	believes ``
-0.8609038	bellwood and
-0.9134797	berry jr.
-0.9134797	best interest
-0.8978143	birth as
-0.8323739	bit of	-0.09949574
-0.5532525	blue ridge
-1.035838	board .
-1.063148	board of
-0.9134797	body's action
-0.7285092	bond issue
-1.386125	bond money
-0.9113569	bonds .	-0.09949565
-1.607105	bonds </s>
-1.529484	bonds for
-1.679088	bonds proposed
-1.62284	bonds would
-1.38515	both candidates
-1.387118	both chambers
-1.387118	both governments
-0.8946158	bowden was
-0.9141427	brief interlude
-0.9141427	brought enthusiastic
-0.8668418	burden ''
-0.6690674	bush ,
-1.386125	bush got
-1.372588	but he
-1.344761	but it
-1.172693	but the
-1.529593	by a
-1.809385	by at
-1.889473	by controversy
-1.796484	by fulton
-1.889473	by ivan
-1.895788	by mayor-nominate
-1.895788	by rob
-1.889473	by tax
-1.410129	by the
-1.889473	by then
-0.8161142	byrd .
-0.9091986	byrd's campaign
-1.033638	caldwell ,
-1.181177	caldwell is
-0.9141427	caldwell's resignation
-0.8147863	callan ,
-1.143471	calls .
-1.244874	calls and
-1.387118	calls soon
-0.9026568	calmest election
-1.250538	campaign ,
-1.254169	campaign .
-1.604859	campaign coordinator
-1.604859	campaign leading
-1.604859	campaign starts
-0.8962121	can be
-1.140655	candidate ,
-1.29796	candidate for
-1.241319	candidate in	-0.09949574
-1.033638	candidates ,
-1.193685	candidates on
-0.9141427	career goes
-0.9091986	carey williams
-0.857965	carry a
-0.8323739	cent of
-0.9141427	certain thursday
-1.140655	chairman ,
-1.387118	chairman james
-1.178782	chairman of
-0.8978143	chambers as
-1.211776	charge jan.
-1.063148	charge of
-1.190524	charged by
-1.213095	charged mental
-0.8323739	cheshire of
-0.9125068	child welfare
-0.8161142	church .
-1.209844	citizens committee
-1.213095	citizens feared
-1.551582	city ''
-1.630695	city ``
-1.852032	city council
-1.852032	city employes
-1.846319	city executive
-1.405551	city of
-1.852032	city officials
-1.846319	city personnel
-1.846319	city purchasing
-0.9134797	clerical personnel
-1.184271	colquitt </s>
-1.211776	colquitt policeman
-0.8393326	combined to
-0.5497038	commented on
-0.8978143	commerce is
-0.9134797	commissioner's office
-1.226507	committee ,
-0.7740613	committee .	-0.09949565
-1.510737	committee approval
-0.8161142	compensation .
-0.882052	concessionaires for
-0.8161142	conducted .
-0.9141427	congress does
-0.9141427	congressional delegation
-0.9141427	congressmen specifically
-0.8296213	considering the
-0.9141427	consistently opposed
-0.8147863	constitution ,
-0.9141427	constitutional amendment
-1.203308	construction bonds
-1.203308	construction work
-0.9141427	consulted yet
-0.8393326	continue to
-0.9141427	contracts let
-0.51509	controversy ,
-1.033638	coolest ,
-1.190524	coolest election
-0.882052	coordinator for
-0.8323739	cost of
-0.8609038	costs and
-0.8594319	council in
-1.12353	counties ''
-1.11024	counties in
-1.650893	county ''
-1.406385	county ,
-2.062711	county democratic
-2.053687	county general
-2.040752	county grand
-1.926538	county has
-2.040752	county jail
-2.053687	county legislator
-2.040752	county must
-2.053687	county purchasing
-2.053687	county rep.
-1.417329	county school
-1.979902	county should
-2.062711	county unit
-1.190524	couple has
-1.175056	couple was
-0.9125068	courses must
-1.395251	court ``
-1.497154	court friday
-1.509998	court judge
-1.45464	court which
-0.9134797	court's wards
-0.882052	courts for
-0.8668418	criticisms ''
-0.8946158	crowd was
-0.8161142	cruelty .
-0.9108495	d. pelham
-0.882052	daniel's ``
-0.9134797	date so
-0.8147863	daughter ,
-1.140655	davis ,
-1.244874	davis and
-1.377404	davis received
-0.9125068	day increase
-0.9108495	days after
-0.9141427	death march
-0.9134797	defeated felix
-0.8594319	delegation in
-0.9134797	democratic executive
-0.9987447	department ,	-0.09949572
-1.344976	department .
-1.608309	department ``
-1.79873	department apparently
-1.695154	department is
-1.79873	department public
-1.803616	department source
-0.9141427	department's handling
-1.063148	departments of
-1.184271	departments which
-1.184271	deputies </s>
-1.178106	deputies be
-0.8296213	deserves the
-0.5211314	despite the
-0.9134797	details were
-0.9141427	determine what
-1.213095	did find
-1.203308	did not
-1.206564	didn't have
-1.213095	didn't smell
-0.8393326	directed to
-0.8147863	director ,
-0.9059154	disable this
-0.9141427	disproportionate burden
-0.9075539	dispute with
-0.8161142	dissents .
-0.9108495	distribute these
-0.8323739	distribution of
-0.9108495	divorce from
-0.9059154	do this
-0.8147863	doctor ,
-0.9134797	does provide
-0.904283	done on
-0.9125068	dorsey added
-0.8323739	drop of
-0.8296213	during the
-0.9141427	durwood pye
-0.904283	duty at
-0.9108495	e. pelham
-0.904283	each county
-0.8594319	earlier in
-0.6690674	education ,
-1.370806	education should
-0.8296213	effect the
-0.8668418	effected ''
-0.9141427	effective date
-0.8609038	efficiency and
-0.8147863	elaborate ,
-1.140655	elected ,
-1.387118	elected servants
-1.382274	elected texas
-1.121571	election ,
-1.124023	election .	-0.09949565
-1.973134	election ballot
-1.924163	election campaign
-1.325653	election i	-0.09949574
-1.96627	election laws
-1.973134	election produced
-1.501878	election to
-1.803036	election was
-0.9134797	eliminate political
-0.882052	emphasizing that
-1.193685	employed at
-1.151398	employed for
-0.8161142	employes .
-1.200077	enabling funds
-1.213095	enabling legislation
-0.8393326	encouragement to
-0.8323739	end of
-0.9141427	endorse increased
-0.857965	enter a	-0.09949572
-0.857965	entering a
-0.8946158	enthusiasm was
-0.9141427	enthusiastic responses
-0.8668418	equitable ''
-0.8323739	establishment of
-0.9141427	event congress
-0.9141427	ever saw
-0.9134797	every time
-0.9141427	everything went
-0.8668418	evidence ''
-0.5222389	exception of
-0.5526673	executive committee
-1.151398	expected for
-1.075054	expected to
-0.8668418	expended ''
-0.9141427	expense allowances
-0.9141427	experienced clerical
-0.9134797	expires jan.
-0.8962121	extern be
-0.8978143	face is
-0.8609038	fact and
-0.8393326	failure to
-0.8609038	fair and
-0.8147863	farms ,
-0.882052	feared that
-0.9141427	featured speaker
-1.510737	federal aid
-0.8481542	federal funds
-1.510737	federal support
-0.882052	feel that
-0.8609038	fees and
-1.211776	felix bush
-1.213095	felix tabb
-0.9134797	filed suit
-0.882052	find that
-0.882052	fire for
-1.509998	first $30
-1.44322	first be
-1.507389	first priority
-1.497154	first race
-0.8393326	fit to
-0.9134797	five per
-1.213095	follow generally
-1.213095	follow shortly
-1.386812	for a
-2.219118	for byrd
-2.219118	for child
-2.112816	for city
-2.219118	for divorce
-2.207243	for future
-1.586494	for governor
-2.207243	for home
-2.137156	for its
-2.219118	for lt.
-2.190357	for more
-2.190357	for night
-2.207243	for public
-2.219118	for reelection
-2.219118	for repair
-2.112816	for rural
-2.112816	for some
-0.9967672	for the
-0.8994225	force it
-0.9141427	formally read
-0.904283	former county
-0.9141427	foster homes
-0.8296213	found the
-1.211776	four additional
-1.213095	four days
-1.206012	friday ,
-1.209288	friday .
-1.49082	friday an
-1.325476	friday in
-0.9134797	friendly test
-1.45464	from his
-1.243485	from the
-1.509998	from undue
-1.509998	from unmeritorious
-0.9141427	fully worked
-0.6451179	fulton county
-1.977423	fulton health
-1.32508	fulton legislators
-1.977423	fulton ordinary's
-1.328179	fulton superior	-0.09949573
-1.971846	fulton tax
-1.977423	fulton taxpayers
-1.184271	fund </s>
-1.209844	fund under
-1.076943	funds ''	-0.09949575
-1.344976	funds .
-1.510101	funds and
-1.685646	funds be
-1.803616	funds granted
-1.803616	funds might
-1.79873	funds through
-0.8962121	further said
-1.190524	future fulton
-1.206564	future legislature
-0.8147863	gainesville ,
-0.9141427	garland byrd's
-1.213095	general assistance
-1.190524	general election
-0.9141427	generally accepted
-0.9141427	george p.
-1.507389	georgia house
-1.497154	georgia legislature
-1.503582	georgia republicans
-1.497154	georgia voters
-1.509998	georgia's automobile
-1.509998	georgia's congressmen
-1.509998	georgia's most
-1.509998	georgia's registration
-0.9141427	getting strong
-0.9134797	give priority
-0.882052	given that
-0.8393326	go to
-0.9134797	goes back
-0.8994225	good his
-0.9125068	gop chairman
-1.213095	got 402
-1.211776	got himself
-1.509998	gov. garland
-1.509998	gov. marvin
-1.509998	gov. price
-1.503582	gov. vandiver
-0.8668418	governments ''
-1.11024	governor in
-1.190524	governor would
-0.9108495	governor's race
-0.9141427	grady hospital
-1.38786	grand juries
-0.7269952	grand jury
-0.882052	granted for
-0.9141427	greater efficiency
-0.5156357	griffin .	-0.09949565
-0.8609038	guardians and
-0.9091986	gubernatorial campaign
-0.8609038	gun and
-0.7279497	had been
-1.38786	had over-all
-0.8323739	handful of
-0.8323739	handling of
-0.9108495	hard-fought primary
-0.9125068	harry davis
-1.250538	hartsfield ,
-1.604859	hartsfield announced
-1.604859	hartsfield filed
-1.551213	hartsfield has
-1.601616	hartsfield home
-1.609945	has a
-0.569505	has been
-1.901549	has consistently
-1.901549	has incorporated
-1.242121	has not
-1.901549	has seen
-0.8083391	have a
-1.499013	have these
-1.28652	have to
-1.282978	he ,
-1.672502	he added
-1.678131	he resigned
-1.682001	he scheduled
-1.594044	he will	-0.09949575
-1.618655	he would
-0.882052	head for
-0.9075539	health department
-0.9141427	heavily traveled
-1.211776	held sept.
-1.211776	held tuesday
-0.9141427	henry l.
-1.028648	highway bond
-0.5483999	highway department	-0.04673291
-1.685813	highway reconstruction
-0.8161142	highways .
-0.8393326	him to
-1.10763	himself a
-1.075054	himself to
-1.970994	his 13th
-1.963495	his age
-1.855222	his election
-1.934859	his first
-1.963495	his petition
-1.963495	his political
-1.970994	his post
-1.970994	his promise
-1.934859	his race
-1.917721	his resolution
-1.963495	his wife
-1.970994	his wife's
-0.857965	hold a
-1.206564	home --
-1.181177	home is
-0.8161142	homes .
-0.9108495	hopper friday
-0.8609038	hospital and
-0.9134797	hot controversy
-1.604859	house hopper
-1.385107	house in
-1.581126	house monday
-1.321056	house to
-1.601616	house voted
-0.6690674	however ,
-1.166864	however .
-0.8296213	hurdle the
-1.211776	i didn't
-1.213095	i ever	-0.09949575
-0.5222389	implementation of
-0.9134797	improving them
-2.459782	in 1923
-2.459782	in 1958
-1.267845	in a
-2.445677	in blue
-2.459782	in each
-2.459782	in effect
-2.459782	in expense
-2.459782	in experienced
-2.459782	in fact
-2.393658	in federal
-2.459782	in foster
-2.261389	in fulton
-2.218019	in his
-2.363785	in its
-2.445677	in our
-2.459782	in saturday's
-2.459782	in savannah
-2.459782	in term-end
-0.4348425	in the
-2.309577	in this
-2.445677	in voting
-2.459782	in washington
-2.218019	in which
-0.8609038	inadequate and
-0.9125068	incorporated into
-1.38786	increase can
-0.6966215	increase in
-0.9108495	increased federal
-0.8668418	influences ''
-0.9141427	insure order
-0.8393326	intends to
-1.11024	interest in
-1.063148	interest of
-0.9134797	interim citizens
-0.8147863	interlude ,
-0.9108495	intern or
-1.372588	into its
-1.172693	into the
-1.38515	into voting
-0.8393326	inure to
-0.9134797	investigate reports
-0.8323739	investigation of
-1.259391	irregularities ''
-1.358452	irregularities at
-1.38515	irregularities took
-1.212908	is a
-1.974701	is asking
-1.887294	is at
-0.8500209	is expected	-0.08724619
-1.974701	is harry
-1.612314	is in
-1.974701	is lacking
-1.943736	is one
-1.974701	is very
-0.8323739	issuance of
-1.507389	issue approved
-1.484577	issue some
-1.243485	issue the
-1.448893	issue will
-0.9141427	issued every
-2.110082	it (
-1.420105	it ,
-2.110082	it added
-2.125358	it approved
-2.136066	it believes
-2.125358	it did
-2.136066	it found
-1.978361	it has
-2.110082	it listed
-2.110082	it recommended
-1.908539	it said
-2.125358	it says
-1.526366	it to
-2.136066	it urged	-0.09949573
-2.125358	it voted
-2.136066	it wanted
-1.430703	it was
-0.8161142	item .
-0.8594319	items in
-1.604859	its 1961
-1.604859	its appointed
-1.604859	its operating
-1.604859	its platform
-1.596892	its practices
-0.857965	itself a
-0.5532525	ivan allen	-0.09949574
-0.9141427	j. m.
-0.904283	jackson county
-1.259391	jail ''
-1.244874	jail and
-1.38515	jail deputies
-0.9141427	james w.
-0.5526673	jan. 1
-0.9141427	john tower
-0.6690674	jr. ,
-1.166864	jr. .
-0.9141427	judge durwood
-0.8147863	juries ,
-0.8962121	jurors said
-1.382589	jury .
-1.919546	jury also
-1.929207	jury commented
-1.929207	jury did
-1.935904	jury further
-1.919546	jury had
-1.935904	jury praised
-1.919546	jury recommended
-1.249432	jury said	-0.06348651
-1.929207	jury took
-0.9134797	just like
-0.8296213	keeping the
-0.9141427	l. bowden
-0.8594319	lacking in
-0.9141427	largest hurdle
-0.9141427	last november
-1.387118	law may
-1.331489	law was
-1.344761	law which
-1.151398	laws ``
-1.213095	laws studied
-0.8393326	leading to
-0.8296213	learned the
-0.8323739	ledford of
-0.882052	legislation that
-1.033638	legislator ,
-1.181177	legislator will
-1.395251	legislators ``
-1.503582	legislators act
-1.509998	legislators allotted
-1.269133	legislators to
-1.395251	legislature ``
-1.509998	legislature against
-1.509998	legislature sessions
-1.448893	legislature will
-0.9141427	less populous
-0.882052	let for
-1.203308	like being
-1.075054	like to
-0.8978143	likely will
-0.8147863	liquor ,
-1.344761	listed his
-1.358452	listed on
-1.172693	listed the
-0.9141427	lived together
-0.9134797	local citizens
-0.8147863	long ,
-0.9108495	lt. gov.
-0.9141427	m. cheshire
-0.9125068	mac barber
-1.035838	made .
-1.213095	made good
-0.9141427	major items
-0.8296213	make the
-0.857965	making a
-0.8609038	man and
-0.9141427	management takes
-1.11024	manner in
-1.151398	manner that
-1.213095	many local
-1.063148	many of
-0.9141427	march 18
-0.9026568	marked by
-0.9141427	married aug.
-0.9134797	marvin griffin
-0.8147863	matters ,
-0.8962121	may be
-1.49082	mayor hartsfield
-1.25066	mayor of
-1.44322	mayor said
-1.507389	mayor william
-1.38515	mayor's attorney
-1.387118	mayor's occupation
-1.387118	mayor's present
-0.9134797	mayor-nominate ivan
-0.8147863	meanwhile ,
-0.9141427	medical intern
-1.033638	meeting ,
-1.211776	meeting held
-0.8323739	members of
-0.9141427	mental cruelty
-0.8296213	mention the
-0.9134797	merger proposed
-0.9141427	midnight phone
-0.9141427	might disable
-0.5497038	miller county
-1.59111	million highway
-1.390713	million to
-0.4712901	million worth	-0.08724619
-0.8609038	modernizing and
-1.254169	monday .
-1.604859	monday afternoon
-1.390065	monday and
-1.385107	monday in
-1.321056	monday to
-1.035838	money .
-1.184271	money it
-1.383587	more term
-0.7288903	more than
-0.9141427	most heavily
-0.9141427	mrs. j.
-0.9134797	multi-million-dollar airport
-1.335868	must be
-1.387118	must hold
-1.387118	must sign
-0.8323739	names of
-0.9091986	near being
-0.8147863	nevertheless ,
-1.656129	new bonds
-1.682734	new management
-1.682734	new multi-million-dollar
-1.647565	new rural
-1.026562	new school	-0.09949572
-0.9125068	newly elected
-0.9108495	next legislature
-1.206012	night ,
-1.329795	night and
-1.325476	night in
-1.472354	night there
-1.497154	no --
-1.509998	no dissents
-1.509998	no evidence
-1.509998	no word
-0.5222389	none of
-1.672502	not been
-1.682001	not elaborate
-1.682001	not fully
-1.682001	not lived
-1.682001	not run
-1.678131	not so
-0.9026568	notice would
-0.9141427	november rejected
-0.5222389	number of
-0.8296213	obtain the
-0.8978143	occupation as
-2.643378	of $50
-2.643378	of 29-5
-1.668778	of a
-2.617643	of additional
-2.617643	of administration
-2.643378	of all
-2.643378	of appraisers
-2.04399	of atlanta
-2.617643	of atlanta's
-2.643378	of birth
-2.582381	of both
-2.617643	of candidates
-2.436338	of city
-2.643378	of commerce
-2.582381	of education
-2.528058	of federal
-2.643378	of fees
-2.528058	of friday
-2.32724	of fulton
-2.643378	of gainesville
-1.385629	of georgia's
-2.528058	of gov.
-2.617643	of griffin
-2.479781	of highway
-2.643378	of keeping
-2.582381	of legislators
-2.643378	of liquor
-2.643378	of modernizing
-2.617643	of office
-2.528058	of one
-2.617643	of other
-2.617643	of our
-2.643378	of possible
-2.643378	of registered
-2.436338	of rural
-2.617643	of such
-2.617643	of sunday
-2.582381	of texas
-0.6732995	of the
-2.018215	of these
-1.973267	of this
-2.643378	of trouble	-0.09949575
-2.04399	of two
-2.643378	of violence
-2.528058	of voters
-0.9026568	off by
-1.10763	offer a
-1.058475	offer the
-0.904283	offered there
-1.033638	office ,
-1.213095	office expires
-0.9075539	offices should
-0.8962121	official said
-0.8393326	officials to
-0.9141427	often ambiguous
-0.9141427	old ones
-1.599008	on a
-1.823536	on fulton
-1.896026	on other
-1.896026	on pay
-1.855068	on some
-0.5394427	on the
-1.88907	on whether
-1.510737	one brief
-1.504884	one more
-0.7874496	one of
-0.9125068	ones are
-0.857965	only a
-0.8147863	opelika ,
-0.8994225	opened his
-1.112865	operated and
-1.11024	operated in
-0.9141427	operating procedures
-0.8323739	operation of
-0.8594319	opposed in
-0.8594319	opposes in
-1.503582	or 2
-1.509998	or extern
-1.509998	or inadequate
-1.503582	or whether
-0.8161142	order .
-1.190524	orderly election
-1.211776	orderly implementation
-1.38515	ordinary apparently
-1.387118	ordinary carey
-1.372588	ordinary williams
-0.9125068	ordinary's court
-1.213095	other matters
-1.213095	other topics
-1.213095	our congressional
-1.213095	our less
-1.140655	out ,
-1.382274	out into
-1.29796	out that
-0.9108495	outgoing jury
-0.9108495	outmoded or
-0.9108495	outright or
-0.9134797	over-all charge
-0.9141427	p. callan
-0.9141427	paid off
-1.209844	party chairman
-1.213095	party opposes
-0.9134797	pass enabling
-1.12353	passed ''
-1.11024	passed in
-0.8161142	past .
-0.5532525	pay raises
-0.9091986	pearl williams
-1.605595	pelham pointed
-1.605595	pelham rd.
-0.9317698	pelham said
-1.535654	pelham will
-0.9134797	pension plan
-1.213095	per cent
-1.213095	per day
-0.9141427	periodic surveillance
-1.058475	permit the
-1.075054	permit to
-1.181177	personnel as
-1.213095	personnel policies
-1.448893	petition as
-1.507389	petition charged
-1.503582	petition listed
-1.44322	petition said
-1.209844	petitions out
-1.213095	petitions requesting
-0.9125068	phone calls
-0.9134797	picking up
-0.8147863	pistol ,
-1.209288	place .
-1.3212	place a
-1.509998	place names
-1.25066	place of
-1.151398	plan for
-1.193685	plan there
-0.8393326	plans to
-0.8161142	platform .
-0.9125068	pointed out
-0.9075539	police department
-1.213095	policeman put
-1.213095	policeman tom
-0.8668418	policies ''
-1.213095	political career
-1.213095	political influences
-1.140655	polls ,
-1.194386	polls to
-1.331489	polls was
-0.9134797	populous counties
-0.5222389	portion of
-0.882052	possible ``
-0.8594319	post in
-1.241319	practices in
-1.178782	practices of
-1.344761	practices which
-0.8609038	praise and
-0.8296213	praised the
-0.8393326	precincts to
-0.9125068	present term
-0.882052	presentments that
-0.9125068	previous grand
-0.9141427	price daniel's
-0.9141427	prices reasonable
-0.9125068	pricing practices
-1.497154	primary after
-1.466369	primary election
-1.503582	primary under
-1.45464	primary which
-0.8609038	principal and
-1.12353	priority ''
-1.213095	priority item
-0.9141427	prison farms
-0.5514795	privilege resolution
-0.8161142	problem .
-0.8296213	procedures the
-0.882052	produced ``
-1.12353	program ''
-1.11024	program in
-0.8161142	promise .
-0.9091986	promised an
-1.12353	property ''
-1.213095	property settlement
-0.9141427	proportionate distribution
-1.184271	proposed </s>
-1.190524	proposed by
-0.8594319	protect in
-0.8994225	protected </s>
-0.8323739	protests of
-1.211776	provide enabling
-1.196869	provide this
-0.882052	provided that
-1.209844	public education
-1.213095	public relations
-1.200077	purchasing department
-1.211776	purchasing departments
-0.8323739	purpose of
-0.8994225	put it
-0.8393326	pye to
-0.8668418	quickie ''
-0.8147863	quiet ,
-0.3548881	race ,
-1.437589	race for
-1.035838	raises .
-1.151398	raises for
-0.8393326	rally to
-0.9141427	rd. aj
-0.8296213	re-set the
-0.9091986	read monday
-0.8393326	ready to
-0.9141427	real smooth
-0.882052	realize ``
-0.8668418	reasonable ''
-0.9075539	receive some
-1.347512	received ''
-1.509998	received 1,119
-1.329795	received and
-1.503582	received anonymous
-0.9134797	receives none
-0.9108495	recent primary
-0.8668418	recommendations ''
-1.404991	recommended ``
-1.47079	recommended by
-0.8277906	recommended that
-0.8323739	reconsideration of
-0.9091986	reconstruction bonds
-0.8296213	reduce the
-0.8161142	reelection .
-0.9134797	regarding atlanta's
-0.9108495	registered voters
-0.8609038	registration and
-0.857965	rejected a
-0.9141427	relations director
-0.9141427	relative handful
-0.8668418	remedy ''
-1.211776	rep. b.
-1.213095	rep. mac
-0.9091986	repair work
-0.9141427	repealed outright
-0.9108495	reportedly received
-1.063148	reports of
-1.175056	reports was
-1.596892	republicans are
-1.523229	republicans be
-1.596892	republicans must
-1.596892	republicans who
-1.551213	republicans would
-0.882052	requesting that
-0.8296213	rescind the
-0.9091986	research being
-0.9125068	resignation had
-1.184271	resigned his
-1.211776	resigned tuesday
-1.838053	resolution )
-1.343091	resolution ,
-1.347589	resolution .
-1.810941	resolution being
-1.810941	resolution monday
-1.846319	resolution passed
-1.432188	resolution to
-1.738485	resolution which
-1.76132	resolution would
-0.9108495	responses from
-0.8323739	result of
-0.8393326	revised to
-0.9141427	revolving fund
-1.213095	ridge brought
-1.211776	ridge meeting
-0.9134797	road construction
-1.213095	roads authority
-1.203308	roads bonds
-0.9141427	rob ledford
-0.9141427	robert snodgrass
-0.882052	run for
-1.525673	rural and
-1.687129	rural road
-0.3485289	rural roads	-0.09949574
-1.483758	said ,	-0.0635215
-0.7939044	said .	-0.2121849
-1.841869	said ``
-1.684696	said a
-2.134781	said friday
-2.112147	said he
-1.99664	said his
-1.693018	said in
-1.99664	said it
-2.173269	said sunday
-1.440641	said that
-1.544955	said the
-1.511974	said there
-2.158659	said they
-2.183496	said wednesday
-0.8978143	sales will
-0.9134797	sam caldwell
-0.9026568	saturday's election
-0.904283	savannah at
-1.12353	saw ''
-1.11024	saw in
-0.5415123	says that
-0.8296213	scheduled the
-0.904283	schley county
-1.508358	school board
-1.510737	school principal
-0.853376	school superintendent	-0.06297703
-0.8994225	see it
-0.8393326	seek to
-0.9141427	seemed certain
-0.9141427	seen fit
-0.9141427	sen. john
-1.190524	senate by
-1.181177	senate is
-1.213095	sept. 13
-1.213095	sept. 8
-0.9125068	september-october term
-0.9108495	servants from
-0.8393326	serve to
-0.8594319	services in
-1.181177	session as
-1.203308	session monday
-0.8161142	sessions .
-0.9141427	set aside
-0.9026568	settlement has
-1.211776	sheriff felix
-1.178106	sheriff said
-0.8161142	shortly .
-0.9134797	shot himself
-0.3456402	should be
-1.687129	should receive
-1.687129	should serve
-0.9134797	sign petitions
-0.8323739	signatures of
-0.9091986	similar resolution
-0.9141427	since 1937
-0.8323739	size of
-0.857965	smell a
-0.8668418	smooth ''
-0.8147863	snodgrass ,
-1.213095	so quiet
-1.151398	so that
-1.682734	some $3
-1.682734	some members
-0.930452	some of
-1.679088	some portion
-1.679088	some time
-0.8994225	something it
-0.8147863	son ,
-0.9108495	soon after
-0.8161142	sought .
-1.178106	source said
-1.213095	source told
-0.8161142	speaker .
-0.9134797	specifically asked
-0.8147863	starts ,
-1.929207	state board
-1.935904	state courts
-1.873145	state funds
-1.935904	state gop
-1.278282	state highway	-0.09949574
-1.919546	state law
-1.929207	state party
-1.935904	state rally
-1.919546	state welfare
-1.873145	state with
-0.8393326	steps to
-0.9026568	stood by
-0.9141427	strong encouragement
-0.8609038	studied and
-0.8323739	study of
-0.8393326	subjected to
-0.9026568	succeeded by
-1.200077	such funds
-1.211776	such reports
-1.151398	suit for
-1.075054	suit to
-0.5526673	sunday night
-1.033638	superintendent ,
-1.181177	superintendent is
-0.9125068	superior court
-0.882052	support for
-0.8323739	surveillance of
-0.904283	swipe at
-1.206564	system --
-1.184271	system which
-0.8962121	tabb said
-1.211776	take petitions
-1.213095	take steps
-0.9134797	taken :
-0.9134797	takes charge
-1.213095	tax authorities
-1.213095	tax commissioner's
-0.8161142	taxpayers .
-1.033638	teacher ,
-1.211776	teacher pay
-0.9141427	technical details
-0.9125068	telephone calls
-1.377404	term jury
-1.178782	term of
-1.194386	term to
-0.9141427	term-end presentments
-1.211776	test suit
-1.058475	test the
-1.344761	texas </s>
-1.387118	texas bankers
-1.387118	texas sen.
-1.10763	than a
-1.213095	than three
-0.8323739	thanks of
-2.287349	that :
-1.533175	that ``
-1.649704	that an
-2.301157	that any
-2.287349	that before
-2.301157	that entering
-2.301157	that enthusiasm
-2.106195	that fulton
-2.267817	that georgia
-2.207012	that he
-1.717	that in
-2.287349	that many
-2.287349	that none
-2.301157	that reconsideration
-2.287349	that such
-2.301157	that technical
-0.9110276	that the	-0.0369307
-2.129291	that there
-2.267817	that vandiver
-2.287349	that when
-1.597885	that will
-2.876769	the $100
-2.876769	the 1962
-1.926803	the ``
-2.771725	the act
-2.337398	the action
-2.876769	the adamant
-2.831141	the administration
-2.831141	the airport
-2.876769	the appointment
-1.897564	the atlanta
-2.35152	the audience
-2.876769	the awarding
-2.876769	the bellwood
-2.876769	the best
-2.831141	the blue
-2.876769	the body's
-2.831141	the bond
-2.614291	the campaign
-1.854339	the city
-2.876769	the concessionaires
-2.876769	the constitution
-2.831141	the coolest
-2.876769	the cost
-2.831141	the counties
-2.176376	the county
-2.35152	the couple
-2.771725	the court
-2.876769	the court's
-2.876769	the crowd
-2.552825	the department
-2.876769	the effective
-1.437444	the election	-0.06298809
-2.876769	the end
-2.876769	the establishment
-2.876769	the event
-2.831141	the exception
-2.876769	the featured
-2.685913	the first
-2.876769	the former
-1.437444	the fulton	-0.03833551
-2.831141	the future
-2.831141	the general
-2.317436	the georgia
-2.771725	the grand	-0.09949573
-2.876769	the gubernatorial
-2.876769	the hard-fought
-2.614291	the hartsfield
-2.255417	the highway
-1.703271	the house
-2.771725	the increase
-2.876769	the issuance
-2.771725	the jail
-2.35152	the jurors	-0.09949574
-2.285321	the jury	-0.2077396
-2.876769	the largest
-2.771725	the law
-2.685913	the legislature
-2.876769	the major
-2.831141	the manner
-2.685913	the mayor
-1.90264	the mayor's
-2.831141	the miller
-1.877919	the new
-2.876769	the next
-2.337398	the number	-0.09949574
-2.876769	the old
-2.831141	the ordinary
-2.876769	the outgoing
-2.831141	the party
-2.876769	the past
-2.337398	the petition
-2.876769	the plans
-2.876769	the polls
-2.876769	the praise
-2.876769	the prices
-2.876769	the pricing
-2.831141	the privilege
-2.876769	the purpose
-2.685913	the race
-2.876769	the recommendations
-1.890207	the republicans
-1.865969	the resolution
-2.552825	the rural
-2.876769	the sales
-2.35152	the senate
-2.831141	the sept.
-2.876769	the september-october
-2.831141	the session
-2.831141	the sheriff
-2.876769	the signatures
-2.876769	the size
-1.455386	the state	-0.030532
-2.876769	the traditional
-2.876769	the validity
-2.685913	the voters
-2.876769	the warning
-2.771725	the welfare
-2.876769	the widespread
-1.12353	them ''
-1.058475	them the
-1.206564	then gov.
-1.058475	then the
-1.67074	there ``
-1.882837	there also
-1.841673	there should
-1.109838	there to
-1.210456	there was
-1.897227	there wasn't
-1.891344	there were
-1.804076	there would
-1.682734	these actions
-1.682734	these available
-1.020515	these funds
-1.679088	these laws
-1.679088	these two
-1.377404	they have
-1.387118	they realize
-1.372588	they work
-1.797994	this city
-1.773204	this county
-1.838053	this increase
-1.727503	this is
-1.846319	this money
-1.852032	this problem
-1.846319	this program
-1.706338	this was
-1.727503	this will
-0.8323739	threats of
-0.9141427	three years
-1.213095	through 87-31
-1.058475	through the
-0.9134797	thursday despite
-1.035838	time .
-1.10763	time a
-0.9125068	title law
-2.566141	to $4
-1.725179	to ``
-2.566141	to achieve
-2.566141	to allow
-2.506222	to anonymous
-2.566141	to approve
-2.540879	to back
-2.142524	to be
-2.566141	to become
-2.506222	to both
-2.566141	to carry
-2.362228	to city
-2.566141	to death
-2.566141	to determine
-2.566141	to distribute
-2.566141	to do
-2.506222	to education
-1.972026	to enter	-0.09949575
-2.566141	to face
-2.452742	to first
-2.452742	to have
-2.194814	to his
-2.566141	to insure
-2.566141	to investigate
-1.50378	to issue	-0.06328584
-1.506039	to make	-0.08724621
-2.566141	to obtain
-2.540879	to offer
-2.566141	to pass
-1.955967	to place
-2.566141	to protect
-2.566141	to remedy
-2.506222	to republicans
-1.972026	to rescind	-0.09949574
-2.362228	to rural
-2.566141	to see
-2.566141	to set
-2.540879	to take
-2.540879	to teacher
-2.540879	to test
-1.141237	to the
-2.452742	to vote
-2.566141	to wait
-2.405131	to work
-0.8978143	together as
-0.8296213	told the
-0.9091986	tom williams
-0.8147863	too ,
-1.10763	took a
-1.209844	took place
-0.9141427	top official
-0.8147863	topics ,
-0.9125068	tossed into
-0.9134797	toward adjournment
-0.8978143	tower will
-0.9141427	traditional visit
-0.9141427	traveled highways
-0.8668418	trouble ''	-0.09949575
-1.209844	tuesday night
-1.075054	tuesday to
-1.387118	two alternative
-1.387118	two offices
-1.387118	two previous
-0.9108495	unanimous vote
-1.387118	under fire
-1.172693	under the
-1.344761	under which
-0.9141427	undue costs
-0.9134797	unit system
-0.9141427	unmeritorious criticisms
-1.151398	up for
-1.203308	up its
-0.8161142	upon .
-0.9141427	urban areas
-0.882052	urged that	-0.09949572
-0.8323739	validity of
-1.466369	vandiver has
-1.448893	vandiver is
-1.509998	vandiver likely
-1.509998	vandiver opened
-0.9141427	veiled threats
-0.9141427	very near
-1.213095	veteran agriculture
-1.213095	veteran jackson
-0.8161142	violence .
-0.8393326	visit to
-1.269001	vote of
-0.8455559	vote on
-1.28652	vote to
-1.206564	voted no
-1.211776	voted through
-1.209288	voters .
-1.329795	voters and
-1.325476	voters in
-1.509998	voters last
-0.8594319	votes in
-1.213095	voting itself
-1.213095	voting precincts
-0.9141427	w. dorsey
-0.9108495	wait one
-0.8393326	wanted to
-1.206564	wards from
-1.213095	wards protected
-0.882052	warned that
-0.8147863	warning ,
-1.617086	was a
-2.108916	was also
-2.124467	was asked
-2.135373	was conducted
-2.135373	was just
-2.135373	was learned
-2.108916	was listed
-2.135373	was marked
-2.135373	was married
-2.083571	was no
-2.059624	was not
-2.135373	was picking
-2.083571	was received
-2.135373	was research
-2.135373	was subjected
-1.474917	was the
-2.135373	was warned
-2.135373	was won
-0.9125068	washington who
-0.857965	wasn't a
-1.211776	we didn't
-1.213095	we feel
-0.8161142	wednesday .
-0.9141427	weekend duty
-1.484577	welfare department
-1.509998	welfare department's
-1.507389	welfare departments
-1.509998	welfare services
-0.9134797	well operated
-0.9141427	went real
-1.206564	were no
-1.203308	were not
-0.9141427	what adjustments
-0.5211314	when the
-0.9075539	where some
-1.344761	whether it
-1.387118	whether notice
-1.172693	whether the
-1.989182	which barber
-1.989182	which had
-1.895066	which has
-2.006758	which inure
-1.867738	which it
-1.972011	which new
-2.006758	which newly
-2.006758	which receives
-1.999557	which says
-0.8140448	which the
-1.829723	which was
-0.9141427	while emphasizing
-1.682001	who attended
-1.682001	who became
-1.682001	who defeated
-1.618655	who has
-1.594044	who is
-1.618655	who would
-0.9134797	widespread interest
-1.033638	wife ,
-1.151398	wife for
-0.9134797	wife's age
-1.999557	will ask
-0.8701837	will be	-0.04683286
-2.006758	will begin
-2.006758	will continue
-2.006758	will eliminate
-1.999557	will follow
-2.006758	will go
-2.006758	will mention
-1.999557	will offer
-1.999557	will permit
-2.006758	will wind
-1.211776	william b.
-1.213095	william berry
-1.268654	williams ,
-1.602579	williams got
-1.583489	williams hartsfield
-0.9317698	williams said
-0.9134797	wind up
-0.9649279	with a
-1.650403	with city
-1.680047	with exception
-0.9331421	with the
-0.9026568	won by
-0.8323739	word of
-1.254169	work .
-1.466168	work for
-1.5585	work on
-1.604859	work toward
-1.573452	work with
-0.9125068	worked out
-0.8323739	worth of
-0.7167065	would be
-1.855791	would force
-1.198902	would have	-0.09949573
-1.851216	would like
-1.822628	would not
-1.855791	would seek
-1.035838	year .
-1.181177	year as
-0.8161142	years .
-0.9141427	yet about

\3-grams:
-0.4774022	funds '' ,
-0.2742873	trouble '' .
-0.2453638	'' , the
-0.514761	department , the
-0.7949013	said , ``
-0.001366421	'' . </s>
-0.006682811	bonds . </s>
-0.006682811	committee . </s>
-0.006682811	election . </s>
-0.006682811	griffin . </s>
-0.0051464	said . </s>
-1.244965	<s> `` this
-0.637329	enter a candidate
-0.520273	ivan allen jr.
-0.9658332	will be succeeded
-0.492503	a bit of
-0.816462	a candidate in
-0.9350438	highway department source
-0.878128	the election ,
-1.088276	the election was
-0.5016347	to enter a
-0.5204861	i ever saw
-0.6006435	is expected to
-0.5349714	the fulton county
-0.4511689	the grand jury
-0.6093079	would have to
-0.6478164	<s> he will
-0.3668261	state highway department
-0.5961325	election i ever
-0.3036991	candidate in the
-0.7329584	to issue the
-1.125842	<s> it urged
-0.5146447	the jurors said
-1.411364	the jury recommended
-0.415935	the jury said
-0.51842	to make the
-0.3529341	the number of
-0.6849608	bit of trouble
-0.4915002	to rescind the
-0.5204861	a revolving fund
-0.8208474	rural roads authority
-0.8176692	rural roads bonds
-1.016684	jury said ,
-1.114415	jury said it
-0.5000226	new school superintendent
-1.101789	the state welfare
-0.516763	be succeeded by
-0.6674794	school superintendent ,
-0.5199599	fulton superior court
-0.5194829	urged that the
-0.5410507	, the jury
-1.781537	<s> the grand
-0.8679517	<s> the jury
-1.723706	<s> the petition
-1.035376	at the polls
-1.025186	that the city
-0.5956243	, there was
-0.5047217	of trouble ''
-0.5099161	it urged that
-0.3523373	<s> when the
-0.5058733	he will be
-0.5195177	million worth of

\end\
